<?xml version="1.0"?>
<opencv_storage>
<cascade>
  <stageType>BOOST</stageType>
  <featureType>HOG</featureType>
  <height>20</height>
  <width>50</width>
  <stageParams>
    <boostType>GAB</boostType>
    <minHitRate>9.9500000476837158e-01</minHitRate>
    <maxFalseAlarm>5.0000000000000000e-01</maxFalseAlarm>
    <weightTrimRate>9.4999999999999996e-01</weightTrimRate>
    <maxDepth>1</maxDepth>
    <maxWeakCount>100</maxWeakCount></stageParams>
  <featureParams>
    <maxCatCount>0</maxCatCount>
    <featSize>36</featSize></featureParams>
  <stageNum>20</stageNum>
  <stages>
    <!-- stage 0 -->
    <_>
      <maxWeakCount>5</maxWeakCount>
      <stageThreshold>-6.6926687955856323e-01</stageThreshold>
      <weakClassifiers>
        <_>
          <internalNodes>
            0 -1 576 2.4042733013629913e-02</internalNodes>
          <leafValues>
            -4.0682414174079895e-01 8.6646884679794312e-01</leafValues></_>
        <_>
          <internalNodes>
            0 -1 420 1.7943404614925385e-02</internalNodes>
          <leafValues>
            -5.1760113239288330e-01 5.9167093038558960e-01</leafValues></_>
        <_>
          <internalNodes>
            0 -1 296 1.5939321368932724e-02</internalNodes>
          <leafValues>
            4.0680274367332458e-01 -3.6292377114295959e-01</leafValues></_>
        <_>
          <internalNodes>
            0 -1 621 2.6775378733873367e-02</internalNodes>
          <leafValues>
            -2.8182426095008850e-01 4.3014800548553467e-01</leafValues></_>
        <_>
          <internalNodes>
            0 -1 561 1.3999219983816147e-02</internalNodes>
          <leafValues>
            -5.8900845050811768e-01 1.8793417513370514e-01</leafValues></_></weakClassifiers></_>
    <!-- stage 1 -->
    <_>
      <maxWeakCount>27</maxWeakCount>
      <stageThreshold>-7.2898089885711670e-01</stageThreshold>
      <weakClassifiers>
        <_>
          <internalNodes>
            0 -1 420 3.1694866716861725e-02</internalNodes>
          <leafValues>
            2.8607276082038879e-01 8.5242837667465210e-01</leafValues></_>
        <_>
          <internalNodes>
            0 -1 637 1.7591323703527451e-02</internalNodes>
          <leafValues>
            5.4552698135375977e-01 -1.8360698223114014e-01</leafValues></_>
        <_>
          <internalNodes>
            0 -1 35 3.6270663142204285e-02</internalNodes>
          <leafValues>
            -1.9931478798389435e-01 4.2690336704254150e-01</leafValues></_>
        <_>
          <internalNodes>
            0 -1 567 3.2935529947280884e-02</internalNodes>
          <leafValues>
            -2.7799928188323975e-01 3.5486671328544617e-01</leafValues></_>
        <_>
          <internalNodes>
            0 -1 77 5.4395467042922974e-02</internalNodes>
          <leafValues>
            -1.5692149102687836e-01 7.1951961517333984e-01</leafValues></_>
        <_>
          <internalNodes>
            0 -1 635 7.4222795665264130e-03</internalNodes>
          <leafValues>
            -7.3891812562942505e-01 1.2932226061820984e-01</leafValues></_>
        <_>
          <internalNodes>
            0 -1 558 1.7371375113725662e-02</internalNodes>
          <leafValues>
            2.8016576170921326e-01 -3.3395826816558838e-01</leafValues></_>
        <_>
          <internalNodes>
            0 -1 522 1.7885222332552075e-03</internalNodes>
          <leafValues>
            -8.1323230266571045e-01 8.2214623689651489e-02</leafValues></_>
        <_>
          <internalNodes>
            0 -1 268 4.4500969350337982e-02</internalNodes>
          <leafValues>
            -1.5074180066585541e-01 4.7487932443618774e-01</leafValues></_>
        <_>
          <internalNodes>
            0 -1 553 4.1011516004800797e-02</internalNodes>
          <leafValues>
            -9.8657533526420593e-02 6.7945557832717896e-01</leafValues></_>
        <_>
          <internalNodes>
            0 -1 567 8.9715411886572838e-03</internalNodes>
          <leafValues>
            -7.0493173599243164e-01 9.5128759741783142e-02</leafValues></_>
        <_>
          <internalNodes>
            0 -1 446 1.8428523093461990e-02</internalNodes>
          <leafValues>
            2.7546828985214233e-01 -2.6177084445953369e-01</leafValues></_>
        <_>
          <internalNodes>
            0 -1 427 4.7503594309091568e-02</internalNodes>
          <leafValues>
            -9.1551788151264191e-02 6.7317187786102295e-01</leafValues></_>
        <_>
          <internalNodes>
            0 -1 462 4.1870251297950745e-02</internalNodes>
          <leafValues>
            -1.9159735739231110e-01 2.5626501441001892e-01</leafValues></_>
        <_>
          <internalNodes>
            0 -1 409 4.2209412902593613e-02</internalNodes>
          <leafValues>
            -1.5220251679420471e-01 4.1399630904197693e-01</leafValues></_>
        <_>
          <internalNodes>
            0 -1 31 2.6452166493982077e-03</internalNodes>
          <leafValues>
            -8.4834432601928711e-01 7.5205720961093903e-02</leafValues></_>
        <_>
          <internalNodes>
            0 -1 255 3.7442907691001892e-02</internalNodes>
          <leafValues>
            -1.3805672526359558e-01 4.1908243298530579e-01</leafValues></_>
        <_>
          <internalNodes>
            0 -1 24 3.4501127898693085e-02</internalNodes>
          <leafValues>
            -1.8121179938316345e-01 3.1124773621559143e-01</leafValues></_>
        <_>
          <internalNodes>
            0 -1 422 3.7461379542946815e-03</internalNodes>
          <leafValues>
            -7.1122527122497559e-01 6.7308224737644196e-02</leafValues></_>
        <_>
          <internalNodes>
            0 -1 302 1.4371345750987530e-02</internalNodes>
          <leafValues>
            2.7818721532821655e-01 -1.9243557751178741e-01</leafValues></_>
        <_>
          <internalNodes>
            0 -1 604 1.0767680406570435e-01</internalNodes>
          <leafValues>
            5.8030251413583755e-02 -7.9812389612197876e-01</leafValues></_>
        <_>
          <internalNodes>
            0 -1 259 4.6031303703784943e-02</internalNodes>
          <leafValues>
            -1.5167453885078430e-01 3.4246313571929932e-01</leafValues></_>
        <_>
          <internalNodes>
            0 -1 509 2.1411806344985962e-02</internalNodes>
          <leafValues>
            2.1053414046764374e-01 -2.4811920523643494e-01</leafValues></_>
        <_>
          <internalNodes>
            0 -1 538 5.8733588084578514e-03</internalNodes>
          <leafValues>
            -6.5624511241912842e-01 7.2793692350387573e-02</leafValues></_>
        <_>
          <internalNodes>
            0 -1 219 1.8549181520938873e-02</internalNodes>
          <leafValues>
            2.1635439991950989e-01 -2.0547671616077423e-01</leafValues></_>
        <_>
          <internalNodes>
            0 -1 309 1.4177003502845764e-01</internalNodes>
          <leafValues>
            4.2732317000627518e-02 -9.4673305749893188e-01</leafValues></_>
        <_>
          <internalNodes>
            0 -1 337 5.1869414746761322e-02</internalNodes>
          <leafValues>
            -7.1150787174701691e-02 6.4797872304916382e-01</leafValues></_></weakClassifiers></_>
    <!-- stage 2 -->
    <_>
      <maxWeakCount>22</maxWeakCount>
      <stageThreshold>-6.9734871387481689e-01</stageThreshold>
      <weakClassifiers>
        <_>
          <internalNodes>
            0 -1 79 7.9718064516782761e-03</internalNodes>
          <leafValues>
            -4.2134830355644226e-01 7.5146067142486572e-01</leafValues></_>
        <_>
          <internalNodes>
            0 -1 567 1.6933407634496689e-02</internalNodes>
          <leafValues>
            -5.0107735395431519e-01 3.6706504225730896e-01</leafValues></_>
        <_>
          <internalNodes>
            0 -1 635 1.3445486314594746e-02</internalNodes>
          <leafValues>
            -5.5744111537933350e-01 2.2309993207454681e-01</leafValues></_>
        <_>
          <internalNodes>
            0 -1 24 1.8211534246802330e-02</internalNodes>
          <leafValues>
            -3.9341652393341064e-01 2.5151321291923523e-01</leafValues></_>
        <_>
          <internalNodes>
            0 -1 597 1.6506450250744820e-02</internalNodes>
          <leafValues>
            -6.2271100282669067e-01 1.4373210072517395e-01</leafValues></_>
        <_>
          <internalNodes>
            0 -1 325 2.8041694313287735e-02</internalNodes>
          <leafValues>
            -2.6460328698158264e-01 3.9511564373970032e-01</leafValues></_>
        <_>
          <internalNodes>
            0 -1 20 1.4848381280899048e-02</internalNodes>
          <leafValues>
            -4.4660079479217529e-01 1.8447479605674744e-01</leafValues></_>
        <_>
          <internalNodes>
            0 -1 136 3.9528712630271912e-02</internalNodes>
          <leafValues>
            -1.7947478592395782e-01 4.9397668242454529e-01</leafValues></_>
        <_>
          <internalNodes>
            0 -1 358 1.7956312745809555e-02</internalNodes>
          <leafValues>
            -4.1526693105697632e-01 1.9210305809974670e-01</leafValues></_>
        <_>
          <internalNodes>
            0 -1 195 6.6228555515408516e-03</internalNodes>
          <leafValues>
            -5.3725081682205200e-01 1.3855728507041931e-01</leafValues></_>
        <_>
          <internalNodes>
            0 -1 218 1.8412616103887558e-02</internalNodes>
          <leafValues>
            1.6904433071613312e-01 -3.9525544643402100e-01</leafValues></_>
        <_>
          <internalNodes>
            0 -1 430 1.7062870785593987e-02</internalNodes>
          <leafValues>
            -2.7817803621292114e-01 2.5073754787445068e-01</leafValues></_>
        <_>
          <internalNodes>
            0 -1 109 4.2429417371749878e-02</internalNodes>
          <leafValues>
            -1.2562467157840729e-01 5.3221601247787476e-01</leafValues></_>
        <_>
          <internalNodes>
            0 -1 213 2.0587420091032982e-02</internalNodes>
          <leafValues>
            2.4969586730003357e-01 -2.1384523808956146e-01</leafValues></_>
        <_>
          <internalNodes>
            0 -1 177 2.1802164614200592e-02</internalNodes>
          <leafValues>
            -4.3750086426734924e-01 1.0507431626319885e-01</leafValues></_>
        <_>
          <internalNodes>
            0 -1 475 4.7324836254119873e-02</internalNodes>
          <leafValues>
            -8.3951428532600403e-02 5.1697897911071777e-01</leafValues></_>
        <_>
          <internalNodes>
            0 -1 275 1.9382845610380173e-02</internalNodes>
          <leafValues>
            -2.0925003290176392e-01 2.0385695993900299e-01</leafValues></_>
        <_>
          <internalNodes>
            0 -1 180 1.2287680059671402e-02</internalNodes>
          <leafValues>
            -4.0310883522033691e-01 1.0696062445640564e-01</leafValues></_>
        <_>
          <internalNodes>
            0 -1 453 3.6153741180896759e-02</internalNodes>
          <leafValues>
            1.0763990879058838e-01 -3.7445446848869324e-01</leafValues></_>
        <_>
          <internalNodes>
            0 -1 306 2.3302979767322540e-02</internalNodes>
          <leafValues>
            -1.7816479504108429e-01 2.2812829911708832e-01</leafValues></_>
        <_>
          <internalNodes>
            0 -1 458 2.3523679003119469e-02</internalNodes>
          <leafValues>
            1.3456845283508301e-01 -3.3190456032752991e-01</leafValues></_>
        <_>
          <internalNodes>
            0 -1 159 2.0576190203428268e-02</internalNodes>
          <leafValues>
            -2.1316869556903839e-01 2.1182009577751160e-01</leafValues></_></weakClassifiers></_>
    <!-- stage 3 -->
    <_>
      <maxWeakCount>37</maxWeakCount>
      <stageThreshold>-6.3286042213439941e-01</stageThreshold>
      <weakClassifiers>
        <_>
          <internalNodes>
            0 -1 597 1.1017145588994026e-02</internalNodes>
          <leafValues>
            -2.9203540086746216e-01 7.1179038286209106e-01</leafValues></_>
        <_>
          <internalNodes>
            0 -1 35 2.6499032974243164e-02</internalNodes>
          <leafValues>
            -1.3552844524383545e-01 4.6365901827812195e-01</leafValues></_>
        <_>
          <internalNodes>
            0 -1 388 4.7534503042697906e-02</internalNodes>
          <leafValues>
            -3.0487868189811707e-01 3.0829679965972900e-01</leafValues></_>
        <_>
          <internalNodes>
            0 -1 337 2.8610032051801682e-02</internalNodes>
          <leafValues>
            -1.9761632382869720e-01 3.6312079429626465e-01</leafValues></_>
        <_>
          <internalNodes>
            0 -1 333 6.0129217803478241e-02</internalNodes>
          <leafValues>
            -1.3668385148048401e-01 5.6065529584884644e-01</leafValues></_>
        <_>
          <internalNodes>
            0 -1 451 4.9412474036216736e-02</internalNodes>
          <leafValues>
            -1.3836230337619781e-01 4.7208422422409058e-01</leafValues></_>
        <_>
          <internalNodes>
            0 -1 538 9.6482187509536743e-03</internalNodes>
          <leafValues>
            -4.9700856208801270e-01 1.2419892847537994e-01</leafValues></_>
        <_>
          <internalNodes>
            0 -1 31 4.9691572785377502e-02</internalNodes>
          <leafValues>
            -1.9711072742938995e-01 4.2229419946670532e-01</leafValues></_>
        <_>
          <internalNodes>
            0 -1 584 4.2793005704879761e-03</internalNodes>
          <leafValues>
            -6.7818087339401245e-01 7.5360700488090515e-02</leafValues></_>
        <_>
          <internalNodes>
            0 -1 214 5.3277857601642609e-02</internalNodes>
          <leafValues>
            -1.4776410162448883e-01 3.1372007727622986e-01</leafValues></_>
        <_>
          <internalNodes>
            0 -1 375 3.5388670861721039e-02</internalNodes>
          <leafValues>
            -1.6737294197082520e-01 3.3711066842079163e-01</leafValues></_>
        <_>
          <internalNodes>
            0 -1 557 3.0617665499448776e-02</internalNodes>
          <leafValues>
            1.5133966505527496e-01 -3.3221676945686340e-01</leafValues></_>
        <_>
          <internalNodes>
            0 -1 3 1.0122590512037277e-01</internalNodes>
          <leafValues>
            6.8474121391773224e-02 -7.4063968658447266e-01</leafValues></_>
        <_>
          <internalNodes>
            0 -1 388 1.5633782371878624e-02</internalNodes>
          <leafValues>
            -6.8462538719177246e-01 5.6966759264469147e-02</leafValues></_>
        <_>
          <internalNodes>
            0 -1 407 1.7144385725259781e-02</internalNodes>
          <leafValues>
            2.0901453495025635e-01 -1.9635215401649475e-01</leafValues></_>
        <_>
          <internalNodes>
            0 -1 482 5.7343235239386559e-03</internalNodes>
          <leafValues>
            -8.0778926610946655e-01 5.5024154484272003e-02</leafValues></_>
        <_>
          <internalNodes>
            0 -1 509 1.9888833165168762e-02</internalNodes>
          <leafValues>
            2.2190678119659424e-01 -2.2551688551902771e-01</leafValues></_>
        <_>
          <internalNodes>
            0 -1 370 2.0768543705344200e-02</internalNodes>
          <leafValues>
            -2.0899261534214020e-01 2.3453193902969360e-01</leafValues></_>
        <_>
          <internalNodes>
            0 -1 322 2.2964425384998322e-02</internalNodes>
          <leafValues>
            -2.7556893229484558e-01 1.6009400784969330e-01</leafValues></_>
        <_>
          <internalNodes>
            0 -1 233 2.7783721685409546e-02</internalNodes>
          <leafValues>
            -1.3969713449478149e-01 2.8319066762924194e-01</leafValues></_>
        <_>
          <internalNodes>
            0 -1 510 3.9236564189195633e-02</internalNodes>
          <leafValues>
            -1.6151876747608185e-01 2.5433662533760071e-01</leafValues></_>
        <_>
          <internalNodes>
            0 -1 194 3.4996692091226578e-02</internalNodes>
          <leafValues>
            -1.6181355714797974e-01 3.1890136003494263e-01</leafValues></_>
        <_>
          <internalNodes>
            0 -1 465 3.9145514369010925e-02</internalNodes>
          <leafValues>
            6.7864485085010529e-02 -6.0969960689544678e-01</leafValues></_>
        <_>
          <internalNodes>
            0 -1 253 1.2642776966094971e-01</internalNodes>
          <leafValues>
            3.7669904530048370e-02 -7.8680264949798584e-01</leafValues></_>
        <_>
          <internalNodes>
            0 -1 414 2.0180258899927139e-02</internalNodes>
          <leafValues>
            1.7264673113822937e-01 -2.1629025042057037e-01</leafValues></_>
        <_>
          <internalNodes>
            0 -1 382 4.6135708689689636e-02</internalNodes>
          <leafValues>
            -9.2338167130947113e-02 3.8972753286361694e-01</leafValues></_>
        <_>
          <internalNodes>
            0 -1 387 4.2312825098633766e-03</internalNodes>
          <leafValues>
            -7.5079119205474854e-01 5.3076352924108505e-02</leafValues></_>
        <_>
          <internalNodes>
            0 -1 623 7.3604481294751167e-03</internalNodes>
          <leafValues>
            -4.2030298709869385e-01 6.4626768231391907e-02</leafValues></_>
        <_>
          <internalNodes>
            0 -1 356 4.9283426254987717e-02</internalNodes>
          <leafValues>
            -6.7566268146038055e-02 4.9203321337699890e-01</leafValues></_>
        <_>
          <internalNodes>
            0 -1 212 8.4859570488333702e-03</internalNodes>
          <leafValues>
            3.1101626157760620e-01 -1.2741671502590179e-01</leafValues></_>
        <_>
          <internalNodes>
            0 -1 454 3.5740263760089874e-02</internalNodes>
          <leafValues>
            -1.2368419021368027e-01 2.5601959228515625e-01</leafValues></_>
        <_>
          <internalNodes>
            0 -1 224 5.6385457515716553e-02</internalNodes>
          <leafValues>
            -6.5094485878944397e-02 5.6608766317367554e-01</leafValues></_>
        <_>
          <internalNodes>
            0 -1 210 3.3931829035282135e-02</internalNodes>
          <leafValues>
            -1.1390385031700134e-01 3.0397829413414001e-01</leafValues></_>
        <_>
          <internalNodes>
            0 -1 503 6.6739590838551521e-03</internalNodes>
          <leafValues>
            -6.2221807241439819e-01 5.1105331629514694e-02</leafValues></_>
        <_>
          <internalNodes>
            0 -1 6 3.1262636184692383e-02</internalNodes>
          <leafValues>
            -1.1360543221235275e-01 2.7536150813102722e-01</leafValues></_>
        <_>
          <internalNodes>
            0 -1 468 5.6363310664892197e-02</internalNodes>
          <leafValues>
            -5.8416079729795456e-02 5.5297785997390747e-01</leafValues></_>
        <_>
          <internalNodes>
            0 -1 619 8.5324030369520187e-03</internalNodes>
          <leafValues>
            -6.2203162908554077e-01 6.2366511672735214e-02</leafValues></_></weakClassifiers></_>
    <!-- stage 4 -->
    <_>
      <maxWeakCount>52</maxWeakCount>
      <stageThreshold>-7.1598386764526367e-01</stageThreshold>
      <weakClassifiers>
        <_>
          <internalNodes>
            0 -1 300 2.1839909255504608e-02</internalNodes>
          <leafValues>
            -6.5891474485397339e-02 7.5244754552841187e-01</leafValues></_>
        <_>
          <internalNodes>
            0 -1 461 2.6213333010673523e-02</internalNodes>
          <leafValues>
            -2.2335687279701233e-01 3.6584806442260742e-01</leafValues></_>
        <_>
          <internalNodes>
            0 -1 621 2.6685154065489769e-02</internalNodes>
          <leafValues>
            -2.7370822429656982e-01 3.3262488245964050e-01</leafValues></_>
        <_>
          <internalNodes>
            0 -1 22 1.3043113052845001e-02</internalNodes>
          <leafValues>
            -3.3882841467857361e-01 2.1853072941303253e-01</leafValues></_>
        <_>
          <internalNodes>
            0 -1 591 1.7843663692474365e-02</internalNodes>
          <leafValues>
            -3.5578149557113647e-01 1.8928663432598114e-01</leafValues></_>
        <_>
          <internalNodes>
            0 -1 195 1.8356874585151672e-02</internalNodes>
          <leafValues>
            -2.6199144124984741e-01 2.0589262247085571e-01</leafValues></_>
        <_>
          <internalNodes>
            0 -1 482 1.9698638468980789e-02</internalNodes>
          <leafValues>
            -4.3075096607208252e-01 1.2995627522468567e-01</leafValues></_>
        <_>
          <internalNodes>
            0 -1 24 3.2170899212360382e-02</internalNodes>
          <leafValues>
            -2.2666688263416290e-01 2.2655120491981506e-01</leafValues></_>
        <_>
          <internalNodes>
            0 -1 198 3.0862890183925629e-02</internalNodes>
          <leafValues>
            -1.8596734106540680e-01 2.6639097929000854e-01</leafValues></_>
        <_>
          <internalNodes>
            0 -1 194 3.8755118846893311e-02</internalNodes>
          <leafValues>
            -1.4297606050968170e-01 3.7270814180374146e-01</leafValues></_>
        <_>
          <internalNodes>
            0 -1 306 3.8529440760612488e-02</internalNodes>
          <leafValues>
            -1.3718424737453461e-01 3.6352038383483887e-01</leafValues></_>
        <_>
          <internalNodes>
            0 -1 514 2.5988768786191940e-02</internalNodes>
          <leafValues>
            1.2029847502708435e-01 -3.7948128581047058e-01</leafValues></_>
        <_>
          <internalNodes>
            0 -1 341 9.9106300622224808e-03</internalNodes>
          <leafValues>
            -3.8753449916839600e-01 9.7848780453205109e-02</leafValues></_>
        <_>
          <internalNodes>
            0 -1 525 9.3895625323057175e-03</internalNodes>
          <leafValues>
            -6.4150351285934448e-01 5.4509941488504410e-02</leafValues></_>
        <_>
          <internalNodes>
            0 -1 297 1.7120471457019448e-03</internalNodes>
          <leafValues>
            4.9876067042350769e-01 -7.5777754187583923e-02</leafValues></_>
        <_>
          <internalNodes>
            0 -1 388 1.0793048888444901e-02</internalNodes>
          <leafValues>
            -7.4898809194564819e-01 4.3633632361888885e-02</leafValues></_>
        <_>
          <internalNodes>
            0 -1 3 8.5776351392269135e-02</internalNodes>
          <leafValues>
            4.6084254980087280e-02 -5.6871414184570312e-01</leafValues></_>
        <_>
          <internalNodes>
            0 -1 549 1.6484439373016357e-02</internalNodes>
          <leafValues>
            -3.8617125153541565e-01 8.3485886454582214e-02</leafValues></_>
        <_>
          <internalNodes>
            0 -1 617 1.8525835126638412e-02</internalNodes>
          <leafValues>
            -2.0370931923389435e-01 1.5398858487606049e-01</leafValues></_>
        <_>
          <internalNodes>
            0 -1 292 3.7726201117038727e-02</internalNodes>
          <leafValues>
            8.0679446458816528e-02 -3.9594590663909912e-01</leafValues></_>
        <_>
          <internalNodes>
            0 -1 83 2.3677028715610504e-02</internalNodes>
          <leafValues>
            1.2416746467351913e-01 -2.2314678132534027e-01</leafValues></_>
        <_>
          <internalNodes>
            0 -1 490 1.1405949480831623e-02</internalNodes>
          <leafValues>
            -3.2336696982383728e-01 9.0508721768856049e-02</leafValues></_>
        <_>
          <internalNodes>
            0 -1 65 7.3352351784706116e-02</internalNodes>
          <leafValues>
            -6.1439394950866699e-02 5.2812981605529785e-01</leafValues></_>
        <_>
          <internalNodes>
            0 -1 458 3.9622828364372253e-02</internalNodes>
          <leafValues>
            5.6046474725008011e-02 -5.9450900554656982e-01</leafValues></_>
        <_>
          <internalNodes>
            0 -1 446 2.3412192240357399e-02</internalNodes>
          <leafValues>
            1.1594169586896896e-01 -2.3191826045513153e-01</leafValues></_>
        <_>
          <internalNodes>
            0 -1 69 3.1145256944000721e-03</internalNodes>
          <leafValues>
            -6.7092359066009521e-01 3.5958174616098404e-02</leafValues></_>
        <_>
          <internalNodes>
            0 -1 136 2.2692140191793442e-02</internalNodes>
          <leafValues>
            -1.4711895585060120e-01 1.7329815030097961e-01</leafValues></_>
        <_>
          <internalNodes>
            0 -1 338 2.3157082498073578e-02</internalNodes>
          <leafValues>
            -2.3043125867843628e-01 1.3404460251331329e-01</leafValues></_>
        <_>
          <internalNodes>
            0 -1 452 3.9462130516767502e-02</internalNodes>
          <leafValues>
            -6.6294409334659576e-02 4.1376549005508423e-01</leafValues></_>
        <_>
          <internalNodes>
            0 -1 301 5.5797461420297623e-02</internalNodes>
          <leafValues>
            5.1107931882143021e-02 -5.8647936582565308e-01</leafValues></_>
        <_>
          <internalNodes>
            0 -1 253 1.0154915973544121e-02</internalNodes>
          <leafValues>
            -7.0030987262725830e-01 3.0900383368134499e-02</leafValues></_>
        <_>
          <internalNodes>
            0 -1 459 6.5428361296653748e-02</internalNodes>
          <leafValues>
            -4.3467648327350616e-02 6.4992868900299072e-01</leafValues></_>
        <_>
          <internalNodes>
            0 -1 377 8.0337096005678177e-03</internalNodes>
          <leafValues>
            -3.1507542729377747e-01 9.0104758739471436e-02</leafValues></_>
        <_>
          <internalNodes>
            0 -1 388 3.0579529702663422e-02</internalNodes>
          <leafValues>
            -2.3536732792854309e-01 9.7229860723018646e-02</leafValues></_>
        <_>
          <internalNodes>
            0 -1 393 1.6423782333731651e-02</internalNodes>
          <leafValues>
            -1.7922218143939972e-01 1.3211576640605927e-01</leafValues></_>
        <_>
          <internalNodes>
            0 -1 268 6.6615700721740723e-02</internalNodes>
          <leafValues>
            -5.9296436607837677e-02 4.7405970096588135e-01</leafValues></_>
        <_>
          <internalNodes>
            0 -1 415 3.8763706106692553e-03</internalNodes>
          <leafValues>
            4.1946944594383240e-01 -5.2129540592432022e-02</leafValues></_>
        <_>
          <internalNodes>
            0 -1 10 2.9531698673963547e-02</internalNodes>
          <leafValues>
            -1.3054800033569336e-01 1.9106885790824890e-01</leafValues></_>
        <_>
          <internalNodes>
            0 -1 601 5.3655177354812622e-02</internalNodes>
          <leafValues>
            3.3057875931262970e-02 -7.4241018295288086e-01</leafValues></_>
        <_>
          <internalNodes>
            0 -1 152 5.6873290304793045e-05</internalNodes>
          <leafValues>
            -6.2577128410339355e-01 2.9566720128059387e-02</leafValues></_>
        <_>
          <internalNodes>
            0 -1 577 1.0038172826170921e-02</internalNodes>
          <leafValues>
            -4.0643903613090515e-01 4.7640182077884674e-02</leafValues></_>
        <_>
          <internalNodes>
            0 -1 259 6.1891928315162659e-02</internalNodes>
          <leafValues>
            -7.1973331272602081e-02 3.2037359476089478e-01</leafValues></_>
        <_>
          <internalNodes>
            0 -1 213 1.7419688403606415e-02</internalNodes>
          <leafValues>
            1.7914061248302460e-01 -1.5305317938327789e-01</leafValues></_>
        <_>
          <internalNodes>
            0 -1 19 3.2254707068204880e-02</internalNodes>
          <leafValues>
            -1.1483139544725418e-01 2.4470712244510651e-01</leafValues></_>
        <_>
          <internalNodes>
            0 -1 367 6.1250261962413788e-02</internalNodes>
          <leafValues>
            7.5383216142654419e-02 -3.5098800063133240e-01</leafValues></_>
        <_>
          <internalNodes>
            0 -1 252 1.7208585515618324e-02</internalNodes>
          <leafValues>
            -2.8302559256553650e-01 8.2285568118095398e-02</leafValues></_>
        <_>
          <internalNodes>
            0 -1 548 6.4566016197204590e-02</internalNodes>
          <leafValues>
            3.3752750605344772e-02 -7.1128791570663452e-01</leafValues></_>
        <_>
          <internalNodes>
            0 -1 40 1.4341356232762337e-02</internalNodes>
          <leafValues>
            2.2275690734386444e-01 -1.0250922292470932e-01</leafValues></_>
        <_>
          <internalNodes>
            0 -1 499 6.0574091970920563e-02</internalNodes>
          <leafValues>
            -5.8303985744714737e-02 3.9028629660606384e-01</leafValues></_>
        <_>
          <internalNodes>
            0 -1 351 9.9755123257637024e-02</internalNodes>
          <leafValues>
            3.2978329807519913e-02 -7.7571004629135132e-01</leafValues></_>
        <_>
          <internalNodes>
            0 -1 105 1.2866613268852234e-01</internalNodes>
          <leafValues>
            2.2735688835382462e-02 -7.6292687654495239e-01</leafValues></_>
        <_>
          <internalNodes>
            0 -1 119 3.6986619234085083e-02</internalNodes>
          <leafValues>
            6.0485489666461945e-02 -3.3665341138839722e-01</leafValues></_></weakClassifiers></_>
    <!-- stage 5 -->
    <_>
      <maxWeakCount>65</maxWeakCount>
      <stageThreshold>-7.0356243848800659e-01</stageThreshold>
      <weakClassifiers>
        <_>
          <internalNodes>
            0 -1 35 6.4675062894821167e-03</internalNodes>
          <leafValues>
            4.9342107027769089e-02 7.5369220972061157e-01</leafValues></_>
        <_>
          <internalNodes>
            0 -1 432 2.1946378052234650e-02</internalNodes>
          <leafValues>
            -8.5896074771881104e-02 4.5248252153396606e-01</leafValues></_>
        <_>
          <internalNodes>
            0 -1 388 3.1873658299446106e-02</internalNodes>
          <leafValues>
            -4.3608912825584412e-01 1.5146046876907349e-01</leafValues></_>
        <_>
          <internalNodes>
            0 -1 528 8.8930875062942505e-03</internalNodes>
          <leafValues>
            -4.9390235543251038e-01 1.3354332745075226e-01</leafValues></_>
        <_>
          <internalNodes>
            0 -1 518 2.1820420399308205e-02</internalNodes>
          <leafValues>
            -3.5695555806159973e-01 1.5239343047142029e-01</leafValues></_>
        <_>
          <internalNodes>
            0 -1 237 6.1647854745388031e-02</internalNodes>
          <leafValues>
            -1.0472599416971207e-01 5.2370285987854004e-01</leafValues></_>
        <_>
          <internalNodes>
            0 -1 631 2.2775975987315178e-02</internalNodes>
          <leafValues>
            -2.7961653470993042e-01 2.1135358512401581e-01</leafValues></_>
        <_>
          <internalNodes>
            0 -1 382 2.5584902614355087e-02</internalNodes>
          <leafValues>
            -1.4206929504871368e-01 2.5910887122154236e-01</leafValues></_>
        <_>
          <internalNodes>
            0 -1 65 5.1455236971378326e-02</internalNodes>
          <leafValues>
            -1.2960679829120636e-01 4.8625412583351135e-01</leafValues></_>
        <_>
          <internalNodes>
            0 -1 558 2.0904365926980972e-02</internalNodes>
          <leafValues>
            1.4455831050872803e-01 -3.1159511208534241e-01</leafValues></_>
        <_>
          <internalNodes>
            0 -1 490 1.6426507383584976e-02</internalNodes>
          <leafValues>
            -2.5961822271347046e-01 1.7847591638565063e-01</leafValues></_>
        <_>
          <internalNodes>
            0 -1 366 7.7427811920642853e-02</internalNodes>
          <leafValues>
            6.0069933533668518e-02 -5.3717970848083496e-01</leafValues></_>
        <_>
          <internalNodes>
            0 -1 287 3.6242268979549408e-02</internalNodes>
          <leafValues>
            -1.5326769649982452e-01 2.4297021329402924e-01</leafValues></_>
        <_>
          <internalNodes>
            0 -1 35 4.6295415610074997e-02</internalNodes>
          <leafValues>
            -1.1449641734361649e-01 3.4028568863868713e-01</leafValues></_>
        <_>
          <internalNodes>
            0 -1 31 1.6417261213064194e-02</internalNodes>
          <leafValues>
            -3.3108988404273987e-01 9.3753278255462646e-02</leafValues></_>
        <_>
          <internalNodes>
            0 -1 22 1.9733000546693802e-02</internalNodes>
          <leafValues>
            -1.7936527729034424e-01 1.6729603707790375e-01</leafValues></_>
        <_>
          <internalNodes>
            0 -1 606 4.0923401713371277e-02</internalNodes>
          <leafValues>
            6.5447419881820679e-02 -4.5029595494270325e-01</leafValues></_>
        <_>
          <internalNodes>
            0 -1 370 4.0056068450212479e-02</internalNodes>
          <leafValues>
            -9.2769324779510498e-02 3.3220049738883972e-01</leafValues></_>
        <_>
          <internalNodes>
            0 -1 251 1.1271053925156593e-02</internalNodes>
          <leafValues>
            1.9080899655818939e-01 -1.6416791081428528e-01</leafValues></_>
        <_>
          <internalNodes>
            0 -1 341 1.2621637433767319e-02</internalNodes>
          <leafValues>
            -3.0226027965545654e-01 1.0753370821475983e-01</leafValues></_>
        <_>
          <internalNodes>
            0 -1 299 1.2003925628960133e-02</internalNodes>
          <leafValues>
            -4.0257069468498230e-01 6.1311107128858566e-02</leafValues></_>
        <_>
          <internalNodes>
            0 -1 534 1.1388679966330528e-02</internalNodes>
          <leafValues>
            3.2984733581542969e-01 -8.8977344334125519e-02</leafValues></_>
        <_>
          <internalNodes>
            0 -1 148 8.9446514844894409e-02</internalNodes>
          <leafValues>
            -3.6093711853027344e-02 7.4014127254486084e-01</leafValues></_>
        <_>
          <internalNodes>
            0 -1 407 5.3913936018943787e-02</internalNodes>
          <leafValues>
            5.2099004387855530e-02 -5.6508660316467285e-01</leafValues></_>
        <_>
          <internalNodes>
            0 -1 194 2.2816209122538567e-02</internalNodes>
          <leafValues>
            -1.7333690822124481e-01 1.5072338283061981e-01</leafValues></_>
        <_>
          <internalNodes>
            0 -1 619 2.0880687981843948e-02</internalNodes>
          <leafValues>
            -2.7274185419082642e-01 9.3450434505939484e-02</leafValues></_>
        <_>
          <internalNodes>
            0 -1 253 1.1760553345084190e-02</internalNodes>
          <leafValues>
            -7.2079914808273315e-01 3.0978014692664146e-02</leafValues></_>
        <_>
          <internalNodes>
            0 -1 208 1.0661850869655609e-01</internalNodes>
          <leafValues>
            4.0146004408597946e-02 -5.4098492860794067e-01</leafValues></_>
        <_>
          <internalNodes>
            0 -1 420 5.7863458991050720e-02</internalNodes>
          <leafValues>
            -9.2114798724651337e-02 2.4641948938369751e-01</leafValues></_>
        <_>
          <internalNodes>
            0 -1 133 1.3457140326499939e-01</internalNodes>
          <leafValues>
            2.8969671577215195e-02 -8.7749785184860229e-01</leafValues></_>
        <_>
          <internalNodes>
            0 -1 406 9.2787444591522217e-02</internalNodes>
          <leafValues>
            3.2887168228626251e-02 -5.7818216085433960e-01</leafValues></_>
        <_>
          <internalNodes>
            0 -1 3 3.7367204204201698e-03</internalNodes>
          <leafValues>
            6.0120666027069092e-01 -4.5374002307653427e-02</leafValues></_>
        <_>
          <internalNodes>
            0 -1 606 2.0527638494968414e-02</internalNodes>
          <leafValues>
            1.7282228171825409e-01 -1.3964410126209259e-01</leafValues></_>
        <_>
          <internalNodes>
            0 -1 274 6.0925692319869995e-02</internalNodes>
          <leafValues>
            4.5908372849225998e-02 -4.2105555534362793e-01</leafValues></_>
        <_>
          <internalNodes>
            0 -1 119 1.7378179356455803e-02</internalNodes>
          <leafValues>
            1.3176833093166351e-01 -1.6010615229606628e-01</leafValues></_>
        <_>
          <internalNodes>
            0 -1 582 5.1989115774631500e-02</internalNodes>
          <leafValues>
            -3.9381135255098343e-02 5.4195886850357056e-01</leafValues></_>
        <_>
          <internalNodes>
            0 -1 226 5.6121302768588066e-03</internalNodes>
          <leafValues>
            -5.9010809659957886e-01 3.9369788020849228e-02</leafValues></_>
        <_>
          <internalNodes>
            0 -1 376 5.9333853423595428e-03</internalNodes>
          <leafValues>
            -2.9054370522499084e-01 7.7534995973110199e-02</leafValues></_>
        <_>
          <internalNodes>
            0 -1 543 1.7306204885244370e-02</internalNodes>
          <leafValues>
            1.3227619230747223e-01 -1.6269949078559875e-01</leafValues></_>
        <_>
          <internalNodes>
            0 -1 13 1.3196866214275360e-01</internalNodes>
          <leafValues>
            2.7730140835046768e-02 -6.9206541776657104e-01</leafValues></_>
        <_>
          <internalNodes>
            0 -1 647 3.6288630217313766e-02</internalNodes>
          <leafValues>
            -8.3721302449703217e-02 2.4247905611991882e-01</leafValues></_>
        <_>
          <internalNodes>
            0 -1 259 4.1923321783542633e-02</internalNodes>
          <leafValues>
            -1.2261711061000824e-01 1.8242576718330383e-01</leafValues></_>
        <_>
          <internalNodes>
            0 -1 353 3.9520971477031708e-02</internalNodes>
          <leafValues>
            -7.5178027153015137e-02 2.7197724580764771e-01</leafValues></_>
        <_>
          <internalNodes>
            0 -1 396 1.5899661928415298e-02</internalNodes>
          <leafValues>
            -1.9160802662372589e-01 1.0479672998189926e-01</leafValues></_>
        <_>
          <internalNodes>
            0 -1 346 1.3184547424316406e-01</internalNodes>
          <leafValues>
            2.1305605769157410e-02 -8.6101078987121582e-01</leafValues></_>
        <_>
          <internalNodes>
            0 -1 323 4.0451094508171082e-02</internalNodes>
          <leafValues>
            -1.3517354428768158e-01 1.4501589536666870e-01</leafValues></_>
        <_>
          <internalNodes>
            0 -1 523 6.7686811089515686e-02</internalNodes>
          <leafValues>
            -3.6369398236274719e-02 6.1092859506607056e-01</leafValues></_>
        <_>
          <internalNodes>
            0 -1 370 1.9827168434858322e-02</internalNodes>
          <leafValues>
            -1.2947249412536621e-01 1.4724794030189514e-01</leafValues></_>
        <_>
          <internalNodes>
            0 -1 60 2.1572109311819077e-02</internalNodes>
          <leafValues>
            -2.2776487469673157e-01 9.9282078444957733e-02</leafValues></_>
        <_>
          <internalNodes>
            0 -1 478 3.7827752530574799e-02</internalNodes>
          <leafValues>
            -6.3001945614814758e-02 3.3807736635208130e-01</leafValues></_>
        <_>
          <internalNodes>
            0 -1 581 7.9979207366704941e-03</internalNodes>
          <leafValues>
            2.4545516073703766e-01 -8.1030845642089844e-02</leafValues></_>
        <_>
          <internalNodes>
            0 -1 30 1.5377119183540344e-02</internalNodes>
          <leafValues>
            -2.0363761484622955e-01 1.1621838063001633e-01</leafValues></_>
        <_>
          <internalNodes>
            0 -1 509 1.3880642130970955e-02</internalNodes>
          <leafValues>
            2.1444346010684967e-01 -9.3209505081176758e-02</leafValues></_>
        <_>
          <internalNodes>
            0 -1 306 5.1434122025966644e-02</internalNodes>
          <leafValues>
            -5.5783554911613464e-02 3.6699557304382324e-01</leafValues></_>
        <_>
          <internalNodes>
            0 -1 133 1.3905585743486881e-02</internalNodes>
          <leafValues>
            -3.5942316055297852e-01 5.7819973677396774e-02</leafValues></_>
        <_>
          <internalNodes>
            0 -1 488 1.0301043093204498e-01</internalNodes>
          <leafValues>
            3.5101935267448425e-02 -5.3751176595687866e-01</leafValues></_>
        <_>
          <internalNodes>
            0 -1 388 2.1525017917156219e-02</internalNodes>
          <leafValues>
            -3.5956054925918579e-01 5.2730284631252289e-02</leafValues></_>
        <_>
          <internalNodes>
            0 -1 367 1.1688175797462463e-01</internalNodes>
          <leafValues>
            1.7588481307029724e-02 -8.2659643888473511e-01</leafValues></_>
        <_>
          <internalNodes>
            0 -1 214 9.0152695775032043e-02</internalNodes>
          <leafValues>
            -4.8485752195119858e-02 4.0888088941574097e-01</leafValues></_>
        <_>
          <internalNodes>
            0 -1 210 4.4598430395126343e-02</internalNodes>
          <leafValues>
            -6.2492087483406067e-02 3.0367767810821533e-01</leafValues></_>
        <_>
          <internalNodes>
            0 -1 351 1.0262995027005672e-02</internalNodes>
          <leafValues>
            -2.6214686036109924e-01 7.5546883046627045e-02</leafValues></_>
        <_>
          <internalNodes>
            0 -1 644 2.6080254465341568e-02</internalNodes>
          <leafValues>
            1.0981522500514984e-01 -1.8941828608512878e-01</leafValues></_>
        <_>
          <internalNodes>
            0 -1 617 6.2812985852360725e-03</internalNodes>
          <leafValues>
            -4.3395757675170898e-01 4.7126919031143188e-02</leafValues></_>
        <_>
          <internalNodes>
            0 -1 68 5.0614312291145325e-02</internalNodes>
          <leafValues>
            -6.3334248960018158e-02 3.4533065557479858e-01</leafValues></_>
        <_>
          <internalNodes>
            0 -1 430 1.4379428699612617e-02</internalNodes>
          <leafValues>
            -1.7333972454071045e-01 1.0814022272825241e-01</leafValues></_></weakClassifiers></_>
    <!-- stage 6 -->
    <_>
      <maxWeakCount>83</maxWeakCount>
      <stageThreshold>-6.6877186298370361e-01</stageThreshold>
      <weakClassifiers>
        <_>
          <internalNodes>
            0 -1 462 3.8067989051342010e-02</internalNodes>
          <leafValues>
            2.3424878716468811e-01 8.1390136480331421e-01</leafValues></_>
        <_>
          <internalNodes>
            0 -1 586 1.5384469181299210e-02</internalNodes>
          <leafValues>
            4.8653748631477356e-01 -8.5699535906314850e-02</leafValues></_>
        <_>
          <internalNodes>
            0 -1 507 1.8518608063459396e-02</internalNodes>
          <leafValues>
            2.3336787521839142e-01 -3.0566358566284180e-01</leafValues></_>
        <_>
          <internalNodes>
            0 -1 157 2.9843300580978394e-02</internalNodes>
          <leafValues>
            1.6996157169342041e-01 -2.7579194307327271e-01</leafValues></_>
        <_>
          <internalNodes>
            0 -1 487 1.5727881342172623e-02</internalNodes>
          <leafValues>
            3.4844499826431274e-01 -1.4516672492027283e-01</leafValues></_>
        <_>
          <internalNodes>
            0 -1 555 4.6545986086130142e-02</internalNodes>
          <leafValues>
            -1.7893110215663910e-01 3.1571447849273682e-01</leafValues></_>
        <_>
          <internalNodes>
            0 -1 606 2.3435911163687706e-02</internalNodes>
          <leafValues>
            1.7412343621253967e-01 -2.3157943785190582e-01</leafValues></_>
        <_>
          <internalNodes>
            0 -1 97 5.5960591882467270e-02</internalNodes>
          <leafValues>
            -7.3399327695369720e-02 4.5620030164718628e-01</leafValues></_>
        <_>
          <internalNodes>
            0 -1 110 4.4288020581007004e-03</internalNodes>
          <leafValues>
            -5.9601670503616333e-01 5.2002016454935074e-02</leafValues></_>
        <_>
          <internalNodes>
            0 -1 446 1.7567910254001617e-02</internalNodes>
          <leafValues>
            1.6886161267757416e-01 -1.9501595199108124e-01</leafValues></_>
        <_>
          <internalNodes>
            0 -1 105 1.4532078057527542e-02</internalNodes>
          <leafValues>
            -2.7855247259140015e-01 1.0587948560714722e-01</leafValues></_>
        <_>
          <internalNodes>
            0 -1 388 1.6791813075542450e-02</internalNodes>
          <leafValues>
            -6.2058818340301514e-01 5.5469989776611328e-02</leafValues></_>
        <_>
          <internalNodes>
            0 -1 380 3.4492708742618561e-02</internalNodes>
          <leafValues>
            -1.4213545620441437e-01 2.2685471177101135e-01</leafValues></_>
        <_>
          <internalNodes>
            0 -1 252 8.3425603806972504e-03</internalNodes>
          <leafValues>
            -5.4483938217163086e-01 5.0743389874696732e-02</leafValues></_>
        <_>
          <internalNodes>
            0 -1 237 6.7333355545997620e-02</internalNodes>
          <leafValues>
            -6.8266555666923523e-02 4.3117246031761169e-01</leafValues></_>
        <_>
          <internalNodes>
            0 -1 414 2.2804096341133118e-02</internalNodes>
          <leafValues>
            1.3318496942520142e-01 -2.4799244105815887e-01</leafValues></_>
        <_>
          <internalNodes>
            0 -1 301 4.8205856233835220e-02</internalNodes>
          <leafValues>
            6.1783105134963989e-02 -4.1766774654388428e-01</leafValues></_>
        <_>
          <internalNodes>
            0 -1 1 3.6493845283985138e-02</internalNodes>
          <leafValues>
            7.2004176676273346e-02 -3.4140998125076294e-01</leafValues></_>
        <_>
          <internalNodes>
            0 -1 265 3.9839004166424274e-03</internalNodes>
          <leafValues>
            -7.5768071413040161e-01 3.0316671356558800e-02</leafValues></_>
        <_>
          <internalNodes>
            0 -1 321 6.8285822868347168e-02</internalNodes>
          <leafValues>
            3.1734917312860489e-02 -7.0654147863388062e-01</leafValues></_>
        <_>
          <internalNodes>
            0 -1 171 1.2417438440024853e-02</internalNodes>
          <leafValues>
            -3.5118687152862549e-01 6.3489571213722229e-02</leafValues></_>
        <_>
          <internalNodes>
            0 -1 479 2.9291357845067978e-02</internalNodes>
          <leafValues>
            9.5658831298351288e-02 -2.7130138874053955e-01</leafValues></_>
        <_>
          <internalNodes>
            0 -1 154 3.5616938024759293e-02</internalNodes>
          <leafValues>
            9.6251279115676880e-02 -2.3694561421871185e-01</leafValues></_>
        <_>
          <internalNodes>
            0 -1 641 1.5525462105870247e-02</internalNodes>
          <leafValues>
            2.0511959493160248e-01 -1.3501287996768951e-01</leafValues></_>
        <_>
          <internalNodes>
            0 -1 180 4.6674474142491817e-03</internalNodes>
          <leafValues>
            -5.6347012519836426e-01 4.4784367084503174e-02</leafValues></_>
        <_>
          <internalNodes>
            0 -1 390 1.4148823916912079e-02</internalNodes>
          <leafValues>
            -2.4094979465007782e-01 9.3631424009799957e-02</leafValues></_>
        <_>
          <internalNodes>
            0 -1 303 2.4092830717563629e-02</internalNodes>
          <leafValues>
            8.7192505598068237e-02 -2.5841927528381348e-01</leafValues></_>
        <_>
          <internalNodes>
            0 -1 538 9.1363545507192612e-03</internalNodes>
          <leafValues>
            -3.9766502380371094e-01 5.1186237484216690e-02</leafValues></_>
        <_>
          <internalNodes>
            0 -1 598 6.5516553819179535e-02</internalNodes>
          <leafValues>
            -3.5413477569818497e-02 6.4266800880432129e-01</leafValues></_>
        <_>
          <internalNodes>
            0 -1 515 4.2577445507049561e-02</internalNodes>
          <leafValues>
            6.2280118465423584e-02 -3.9492267370223999e-01</leafValues></_>
        <_>
          <internalNodes>
            0 -1 370 1.7967250198125839e-02</internalNodes>
          <leafValues>
            -1.9924321770668030e-01 1.1485319584608078e-01</leafValues></_>
        <_>
          <internalNodes>
            0 -1 357 8.1331981346011162e-03</internalNodes>
          <leafValues>
            2.6658332347869873e-01 -7.6122507452964783e-02</leafValues></_>
        <_>
          <internalNodes>
            0 -1 103 8.7252885103225708e-02</internalNodes>
          <leafValues>
            -3.3311866223812103e-02 6.5712434053421021e-01</leafValues></_>
        <_>
          <internalNodes>
            0 -1 6 1.9396845251321793e-02</internalNodes>
          <leafValues>
            -1.4258265495300293e-01 1.3892094790935516e-01</leafValues></_>
        <_>
          <internalNodes>
            0 -1 388 3.5441800951957703e-02</internalNodes>
          <leafValues>
            -2.0474833250045776e-01 1.1014387011528015e-01</leafValues></_>
        <_>
          <internalNodes>
            0 -1 470 6.1877267435193062e-03</internalNodes>
          <leafValues>
            -5.5474919080734253e-01 3.2871738076210022e-02</leafValues></_>
        <_>
          <internalNodes>
            0 -1 306 6.5167918801307678e-02</internalNodes>
          <leafValues>
            -4.0997017174959183e-02 5.6691843271255493e-01</leafValues></_>
        <_>
          <internalNodes>
            0 -1 254 7.2080105543136597e-02</internalNodes>
          <leafValues>
            3.6152344197034836e-02 -5.8748430013656616e-01</leafValues></_>
        <_>
          <internalNodes>
            0 -1 194 2.5195427238941193e-02</internalNodes>
          <leafValues>
            -1.3955411314964294e-01 1.4942918717861176e-01</leafValues></_>
        <_>
          <internalNodes>
            0 -1 639 4.3080776929855347e-02</internalNodes>
          <leafValues>
            -8.1734009087085724e-02 2.8804337978363037e-01</leafValues></_>
        <_>
          <internalNodes>
            0 -1 409 3.7663310766220093e-02</internalNodes>
          <leafValues>
            -9.3189820647239685e-02 2.3066428303718567e-01</leafValues></_>
        <_>
          <internalNodes>
            0 -1 526 1.9200187176465988e-02</internalNodes>
          <leafValues>
            2.0665910840034485e-01 -1.0846439749002457e-01</leafValues></_>
        <_>
          <internalNodes>
            0 -1 240 2.9362553730607033e-02</internalNodes>
          <leafValues>
            9.6277363598346710e-02 -2.2687709331512451e-01</leafValues></_>
        <_>
          <internalNodes>
            0 -1 408 2.1142387762665749e-02</internalNodes>
          <leafValues>
            1.1594086140394211e-01 -1.5503339469432831e-01</leafValues></_>
        <_>
          <internalNodes>
            0 -1 630 3.6583792418241501e-02</internalNodes>
          <leafValues>
            5.6584086269140244e-02 -3.2900238037109375e-01</leafValues></_>
        <_>
          <internalNodes>
            0 -1 79 5.7945940643548965e-03</internalNodes>
          <leafValues>
            -6.2780785560607910e-01 2.4154122918844223e-02</leafValues></_>
        <_>
          <internalNodes>
            0 -1 43 3.8786586374044418e-02</internalNodes>
          <leafValues>
            -7.4214838445186615e-02 2.3663048446178436e-01</leafValues></_>
        <_>
          <internalNodes>
            0 -1 389 7.1242667734622955e-02</internalNodes>
          <leafValues>
            3.5800758749246597e-02 -5.0039726495742798e-01</leafValues></_>
        <_>
          <internalNodes>
            0 -1 634 1.7207767814397812e-02</internalNodes>
          <leafValues>
            -2.5266328454017639e-01 7.2126068174839020e-02</leafValues></_>
        <_>
          <internalNodes>
            0 -1 444 2.9352264478802681e-02</internalNodes>
          <leafValues>
            7.4466422200202942e-02 -2.2711487114429474e-01</leafValues></_>
        <_>
          <internalNodes>
            0 -1 50 3.5601273179054260e-02</internalNodes>
          <leafValues>
            -1.1278454214334488e-01 1.9653750956058502e-01</leafValues></_>
        <_>
          <internalNodes>
            0 -1 175 3.0942177399992943e-02</internalNodes>
          <leafValues>
            8.6585402488708496e-02 -1.8763528764247894e-01</leafValues></_>
        <_>
          <internalNodes>
            0 -1 133 1.3854667544364929e-02</internalNodes>
          <leafValues>
            -3.1113865971565247e-01 5.5958755314350128e-02</leafValues></_>
        <_>
          <internalNodes>
            0 -1 74 3.4552820026874542e-02</internalNodes>
          <leafValues>
            -1.0296580195426941e-01 1.6359022259712219e-01</leafValues></_>
        <_>
          <internalNodes>
            0 -1 155 6.7619651556015015e-02</internalNodes>
          <leafValues>
            5.2758134901523590e-02 -3.3666795492172241e-01</leafValues></_>
        <_>
          <internalNodes>
            0 -1 187 1.2715177144855261e-03</internalNodes>
          <leafValues>
            6.0029083490371704e-01 -2.9725098982453346e-02</leafValues></_>
        <_>
          <internalNodes>
            0 -1 268 4.4060163199901581e-02</internalNodes>
          <leafValues>
            -6.9245286285877228e-02 2.3465965688228607e-01</leafValues></_>
        <_>
          <internalNodes>
            0 -1 329 5.2847869694232941e-02</internalNodes>
          <leafValues>
            -4.9120664596557617e-02 3.7889364361763000e-01</leafValues></_>
        <_>
          <internalNodes>
            0 -1 209 5.7346438989043236e-03</internalNodes>
          <leafValues>
            -3.7321934103965759e-01 5.3866013884544373e-02</leafValues></_>
        <_>
          <internalNodes>
            0 -1 216 1.8400041386485100e-02</internalNodes>
          <leafValues>
            1.5236121416091919e-01 -1.1815564334392548e-01</leafValues></_>
        <_>
          <internalNodes>
            0 -1 300 2.0257212221622467e-02</internalNodes>
          <leafValues>
            -3.2266014814376831e-01 5.5296663194894791e-02</leafValues></_>
        <_>
          <internalNodes>
            0 -1 59 8.3930231630802155e-02</internalNodes>
          <leafValues>
            1.7757806926965714e-02 -7.7520173788070679e-01</leafValues></_>
        <_>
          <internalNodes>
            0 -1 458 4.0579199790954590e-02</internalNodes>
          <leafValues>
            2.9521925374865532e-02 -4.4854867458343506e-01</leafValues></_>
        <_>
          <internalNodes>
            0 -1 248 3.3812534064054489e-02</internalNodes>
          <leafValues>
            6.7403599619865417e-02 -2.2035221755504608e-01</leafValues></_>
        <_>
          <internalNodes>
            0 -1 477 6.0167632997035980e-02</internalNodes>
          <leafValues>
            3.7156265228986740e-02 -4.6152999997138977e-01</leafValues></_>
        <_>
          <internalNodes>
            0 -1 574 1.8356289714574814e-02</internalNodes>
          <leafValues>
            1.3851968944072723e-01 -1.2267082929611206e-01</leafValues></_>
        <_>
          <internalNodes>
            0 -1 330 1.2907957658171654e-02</internalNodes>
          <leafValues>
            2.0547901093959808e-01 -7.9821802675724030e-02</leafValues></_>
        <_>
          <internalNodes>
            0 -1 331 8.3338674157857895e-03</internalNodes>
          <leafValues>
            -4.5471444725990295e-01 3.6580096930265427e-02</leafValues></_>
        <_>
          <internalNodes>
            0 -1 579 3.5727333277463913e-02</internalNodes>
          <leafValues>
            4.5690312981605530e-02 -3.1770402193069458e-01</leafValues></_>
        <_>
          <internalNodes>
            0 -1 118 4.2433060705661774e-02</internalNodes>
          <leafValues>
            4.5503608882427216e-02 -3.2144469022750854e-01</leafValues></_>
        <_>
          <internalNodes>
            0 -1 427 4.2081505060195923e-02</internalNodes>
          <leafValues>
            -5.9801314026117325e-02 3.0545967817306519e-01</leafValues></_>
        <_>
          <internalNodes>
            0 -1 425 1.6336508095264435e-02</internalNodes>
          <leafValues>
            -1.8947120010852814e-01 9.5308259129524231e-02</leafValues></_>
        <_>
          <internalNodes>
            0 -1 423 5.5564045906066895e-02</internalNodes>
          <leafValues>
            -3.5485226660966873e-02 3.6691108345985413e-01</leafValues></_>
        <_>
          <internalNodes>
            0 -1 104 3.4258752129971981e-03</internalNodes>
          <leafValues>
            -4.2567604780197144e-01 3.7505749613046646e-02</leafValues></_>
        <_>
          <internalNodes>
            0 -1 381 6.1187587678432465e-02</internalNodes>
          <leafValues>
            3.2202076166868210e-02 -4.5673853158950806e-01</leafValues></_>
        <_>
          <internalNodes>
            0 -1 368 6.1993323266506195e-02</internalNodes>
          <leafValues>
            -3.4606076776981354e-02 4.3321087956428528e-01</leafValues></_>
        <_>
          <internalNodes>
            0 -1 120 1.0537792695686221e-03</internalNodes>
          <leafValues>
            5.6369721889495850e-01 -2.3952351883053780e-02</leafValues></_>
        <_>
          <internalNodes>
            0 -1 339 1.6175197437405586e-02</internalNodes>
          <leafValues>
            -2.8273957967758179e-01 5.1182109862565994e-02</leafValues></_>
        <_>
          <internalNodes>
            0 -1 364 4.5301645994186401e-02</internalNodes>
          <leafValues>
            -4.9038976430892944e-02 3.1076267361640930e-01</leafValues></_>
        <_>
          <internalNodes>
            0 -1 403 1.3132797554135323e-02</internalNodes>
          <leafValues>
            -2.0100441575050354e-01 8.9795343577861786e-02</leafValues></_>
        <_>
          <internalNodes>
            0 -1 591 5.0380662083625793e-02</internalNodes>
          <leafValues>
            -4.2351253330707550e-02 3.4941992163658142e-01</leafValues></_>
        <_>
          <internalNodes>
            0 -1 77 6.0967840254306793e-02</internalNodes>
          <leafValues>
            -4.8440374433994293e-02 3.2340675592422485e-01</leafValues></_>
        <_>
          <internalNodes>
            0 -1 56 3.7616148591041565e-02</internalNodes>
          <leafValues>
            -8.2731403410434723e-02 2.0002129673957825e-01</leafValues></_></weakClassifiers></_>
    <!-- stage 7 -->
    <_>
      <maxWeakCount>99</maxWeakCount>
      <stageThreshold>-6.2868845462799072e-01</stageThreshold>
      <weakClassifiers>
        <_>
          <internalNodes>
            0 -1 558 1.6280859708786011e-02</internalNodes>
          <leafValues>
            8.0586081743240356e-01 3.6209151148796082e-01</leafValues></_>
        <_>
          <internalNodes>
            0 -1 420 5.2542932331562042e-02</internalNodes>
          <leafValues>
            -4.3675463646650314e-02 6.4321792125701904e-01</leafValues></_>
        <_>
          <internalNodes>
            0 -1 296 9.4295423477888107e-03</internalNodes>
          <leafValues>
            3.4130302071571350e-01 -2.0305563509464264e-01</leafValues></_>
        <_>
          <internalNodes>
            0 -1 642 1.7142210155725479e-02</internalNodes>
          <leafValues>
            2.3019686341285706e-01 -2.5455346703529358e-01</leafValues></_>
        <_>
          <internalNodes>
            0 -1 237 5.2761904895305634e-02</internalNodes>
          <leafValues>
            -1.4777657389640808e-01 4.4278162717819214e-01</leafValues></_>
        <_>
          <internalNodes>
            0 -1 407 2.7926236391067505e-02</internalNodes>
          <leafValues>
            1.2087831646203995e-01 -2.9933789372444153e-01</leafValues></_>
        <_>
          <internalNodes>
            0 -1 40 3.0618984252214432e-02</internalNodes>
          <leafValues>
            1.6487641632556915e-01 -1.9114007055759430e-01</leafValues></_>
        <_>
          <internalNodes>
            0 -1 466 4.0817704051733017e-02</internalNodes>
          <leafValues>
            9.1808117926120758e-02 -4.0667128562927246e-01</leafValues></_>
        <_>
          <internalNodes>
            0 -1 276 2.3646038025617599e-03</internalNodes>
          <leafValues>
            -6.0985064506530762e-01 2.3208474740386009e-02</leafValues></_>
        <_>
          <internalNodes>
            0 -1 511 4.1156642138957977e-02</internalNodes>
          <leafValues>
            -1.9233286380767822e-01 1.5664787590503693e-01</leafValues></_>
        <_>
          <internalNodes>
            0 -1 557 4.6831943094730377e-02</internalNodes>
          <leafValues>
            5.1263350993394852e-02 -5.6678044795989990e-01</leafValues></_>
        <_>
          <internalNodes>
            0 -1 4 1.6596291214227676e-02</internalNodes>
          <leafValues>
            1.4128829538822174e-01 -1.7444525659084320e-01</leafValues></_>
        <_>
          <internalNodes>
            0 -1 419 7.4705537408590317e-03</internalNodes>
          <leafValues>
            4.5566904544830322e-01 -6.3941121101379395e-02</leafValues></_>
        <_>
          <internalNodes>
            0 -1 461 5.4057403467595577e-03</internalNodes>
          <leafValues>
            -9.0852564573287964e-01 3.0947903171181679e-02</leafValues></_>
        <_>
          <internalNodes>
            0 -1 136 1.7178155481815338e-02</internalNodes>
          <leafValues>
            -1.9752775132656097e-01 1.3576690852642059e-01</leafValues></_>
        <_>
          <internalNodes>
            0 -1 285 6.3822820782661438e-02</internalNodes>
          <leafValues>
            -3.6381237208843231e-02 6.2185692787170410e-01</leafValues></_>
        <_>
          <internalNodes>
            0 -1 430 2.1492348983883858e-02</internalNodes>
          <leafValues>
            -1.3248574733734131e-01 1.7300827801227570e-01</leafValues></_>
        <_>
          <internalNodes>
            0 -1 77 5.3911507129669189e-02</internalNodes>
          <leafValues>
            -6.7193426191806793e-02 3.3651074767112732e-01</leafValues></_>
        <_>
          <internalNodes>
            0 -1 492 5.7721622288227081e-02</internalNodes>
          <leafValues>
            -4.6570211648941040e-02 4.6934521198272705e-01</leafValues></_>
        <_>
          <internalNodes>
            0 -1 35 4.2103521525859833e-02</internalNodes>
          <leafValues>
            -1.0935787111520767e-01 2.1579693257808685e-01</leafValues></_>
        <_>
          <internalNodes>
            0 -1 327 4.3225377798080444e-02</internalNodes>
          <leafValues>
            7.7682368457317352e-02 -3.1399363279342651e-01</leafValues></_>
        <_>
          <internalNodes>
            0 -1 398 6.8008430302143097e-02</internalNodes>
          <leafValues>
            -4.8738874495029449e-02 5.1752513647079468e-01</leafValues></_>
        <_>
          <internalNodes>
            0 -1 94 3.7003017961978912e-02</internalNodes>
          <leafValues>
            -1.0327901691198349e-01 2.1235419809818268e-01</leafValues></_>
        <_>
          <internalNodes>
            0 -1 353 3.9875835180282593e-02</internalNodes>
          <leafValues>
            -7.3909066617488861e-02 2.7895158529281616e-01</leafValues></_>
        <_>
          <internalNodes>
            0 -1 406 3.2584987580776215e-02</internalNodes>
          <leafValues>
            1.2126921862363815e-01 -1.5591821074485779e-01</leafValues></_>
        <_>
          <internalNodes>
            0 -1 293 8.7042320519685745e-03</internalNodes>
          <leafValues>
            -3.5805386304855347e-01 6.3807725906372070e-02</leafValues></_>
        <_>
          <internalNodes>
            0 -1 356 6.2981642782688141e-02</internalNodes>
          <leafValues>
            -3.6849513649940491e-02 5.4968082904815674e-01</leafValues></_>
        <_>
          <internalNodes>
            0 -1 129 5.7235553860664368e-02</internalNodes>
          <leafValues>
            4.7674462199211121e-02 -4.3958485126495361e-01</leafValues></_>
        <_>
          <internalNodes>
            0 -1 635 1.4196063391864300e-02</internalNodes>
          <leafValues>
            -2.6618108153343201e-01 6.5868005156517029e-02</leafValues></_>
        <_>
          <internalNodes>
            0 -1 138 2.8246380388736725e-02</internalNodes>
          <leafValues>
            -1.3919058442115784e-01 1.2108775973320007e-01</leafValues></_>
        <_>
          <internalNodes>
            0 -1 554 1.3474738225340843e-02</internalNodes>
          <leafValues>
            1.8670754134654999e-01 -9.1730095446109772e-02</leafValues></_>
        <_>
          <internalNodes>
            0 -1 306 2.4047672748565674e-02</internalNodes>
          <leafValues>
            -1.2593792378902435e-01 1.8474377691745758e-01</leafValues></_>
        <_>
          <internalNodes>
            0 -1 455 5.6894239038228989e-02</internalNodes>
          <leafValues>
            -5.8748025447130203e-02 2.9031243920326233e-01</leafValues></_>
        <_>
          <internalNodes>
            0 -1 311 2.1666422486305237e-02</internalNodes>
          <leafValues>
            -1.2218300253152847e-01 1.6062411665916443e-01</leafValues></_>
        <_>
          <internalNodes>
            0 -1 272 1.7521884292364120e-02</internalNodes>
          <leafValues>
            1.5511880815029144e-01 -1.2538087368011475e-01</leafValues></_>
        <_>
          <internalNodes>
            0 -1 176 1.1923752725124359e-02</internalNodes>
          <leafValues>
            -3.7208873033523560e-01 5.2589483559131622e-02</leafValues></_>
        <_>
          <internalNodes>
            0 -1 71 4.3057955801486969e-02</internalNodes>
          <leafValues>
            -5.9992305934429169e-02 3.1509163975715637e-01</leafValues></_>
        <_>
          <internalNodes>
            0 -1 74 5.3475402295589447e-02</internalNodes>
          <leafValues>
            -6.1131399124860764e-02 2.5339558720588684e-01</leafValues></_>
        <_>
          <internalNodes>
            0 -1 365 3.1063461676239967e-02</internalNodes>
          <leafValues>
            8.1707447767257690e-02 -2.2288109362125397e-01</leafValues></_>
        <_>
          <internalNodes>
            0 -1 3 2.0616179332137108e-02</internalNodes>
          <leafValues>
            1.6678448021411896e-01 -1.1160992830991745e-01</leafValues></_>
        <_>
          <internalNodes>
            0 -1 266 8.5050035268068314e-03</internalNodes>
          <leafValues>
            -5.6053030490875244e-01 3.0078502371907234e-02</leafValues></_>
        <_>
          <internalNodes>
            0 -1 99 1.2650271877646446e-02</internalNodes>
          <leafValues>
            -3.1044140458106995e-01 4.6475499868392944e-02</leafValues></_>
        <_>
          <internalNodes>
            0 -1 221 9.5989769324660301e-03</internalNodes>
          <leafValues>
            4.5911476016044617e-01 -3.5871107131242752e-02</leafValues></_>
        <_>
          <internalNodes>
            0 -1 297 1.5994858695194125e-03</internalNodes>
          <leafValues>
            4.0334084630012512e-01 -3.2867077738046646e-02</leafValues></_>
        <_>
          <internalNodes>
            0 -1 192 1.4070782065391541e-01</internalNodes>
          <leafValues>
            1.7278982326388359e-02 -8.3297902345657349e-01</leafValues></_>
        <_>
          <internalNodes>
            0 -1 235 1.0486191138625145e-02</internalNodes>
          <leafValues>
            -3.9769145846366882e-01 3.8264859467744827e-02</leafValues></_>
        <_>
          <internalNodes>
            0 -1 367 2.2115882020443678e-03</internalNodes>
          <leafValues>
            6.7563390731811523e-01 -2.3148644715547562e-02</leafValues></_>
        <_>
          <internalNodes>
            0 -1 72 3.0332926660776138e-02</internalNodes>
          <leafValues>
            -7.5388111174106598e-02 1.8586030602455139e-01</leafValues></_>
        <_>
          <internalNodes>
            0 -1 22 1.7354797571897507e-02</internalNodes>
          <leafValues>
            -1.6184329986572266e-01 1.0276950150728226e-01</leafValues></_>
        <_>
          <internalNodes>
            0 -1 588 1.3259094208478928e-02</internalNodes>
          <leafValues>
            1.7836220562458038e-01 -8.5105195641517639e-02</leafValues></_>
        <_>
          <internalNodes>
            0 -1 310 4.7235481441020966e-02</internalNodes>
          <leafValues>
            3.8316518068313599e-02 -3.6068284511566162e-01</leafValues></_>
        <_>
          <internalNodes>
            0 -1 392 1.3651054352521896e-02</internalNodes>
          <leafValues>
            1.6648593544960022e-01 -8.7855696678161621e-02</leafValues></_>
        <_>
          <internalNodes>
            0 -1 458 4.9783685244619846e-03</internalNodes>
          <leafValues>
            -3.8204160332679749e-01 4.0214844048023224e-02</leafValues></_>
        <_>
          <internalNodes>
            0 -1 286 3.6530639044940472e-03</internalNodes>
          <leafValues>
            3.9765828847885132e-01 -3.1350076198577881e-02</leafValues></_>
        <_>
          <internalNodes>
            0 -1 523 3.5769061651080847e-03</internalNodes>
          <leafValues>
            -6.0900110006332397e-01 2.5525733828544617e-02</leafValues></_>
        <_>
          <internalNodes>
            0 -1 17 5.9448104351758957e-02</internalNodes>
          <leafValues>
            -4.5025624334812164e-02 3.3673965930938721e-01</leafValues></_>
        <_>
          <internalNodes>
            0 -1 143 4.5670401304960251e-03</internalNodes>
          <leafValues>
            -4.8398157954216003e-01 3.2943166792392731e-02</leafValues></_>
        <_>
          <internalNodes>
            0 -1 236 8.0763369798660278e-02</internalNodes>
          <leafValues>
            -5.5020514875650406e-02 2.9670155048370361e-01</leafValues></_>
        <_>
          <internalNodes>
            0 -1 407 6.8868421018123627e-02</internalNodes>
          <leafValues>
            1.9403021782636642e-02 -7.1940344572067261e-01</leafValues></_>
        <_>
          <internalNodes>
            0 -1 595 3.9330936968326569e-02</internalNodes>
          <leafValues>
            -5.4204545915126801e-02 2.6958543062210083e-01</leafValues></_>
        <_>
          <internalNodes>
            0 -1 536 2.4978073313832283e-02</internalNodes>
          <leafValues>
            -1.2600784003734589e-01 1.3606704771518707e-01</leafValues></_>
        <_>
          <internalNodes>
            0 -1 565 4.3379619717597961e-02</internalNodes>
          <leafValues>
            -3.6562003195285797e-02 3.8264876604080200e-01</leafValues></_>
        <_>
          <internalNodes>
            0 -1 639 5.5370245128870010e-02</internalNodes>
          <leafValues>
            -4.8351515084505081e-02 3.1016403436660767e-01</leafValues></_>
        <_>
          <internalNodes>
            0 -1 87 3.5853639245033264e-02</internalNodes>
          <leafValues>
            5.3672246634960175e-02 -2.3460392653942108e-01</leafValues></_>
        <_>
          <internalNodes>
            0 -1 389 8.3199322223663330e-02</internalNodes>
          <leafValues>
            1.9298627972602844e-02 -6.6759836673736572e-01</leafValues></_>
        <_>
          <internalNodes>
            0 -1 237 9.7927317023277283e-02</internalNodes>
          <leafValues>
            -2.9640669003129005e-02 5.1706868410110474e-01</leafValues></_>
        <_>
          <internalNodes>
            0 -1 282 2.4227003450505435e-04</internalNodes>
          <leafValues>
            -6.5916317701339722e-01 2.4417206645011902e-02</leafValues></_>
        <_>
          <internalNodes>
            0 -1 316 1.0317657142877579e-02</internalNodes>
          <leafValues>
            2.2718490660190582e-01 -6.4771972596645355e-02</leafValues></_>
        <_>
          <internalNodes>
            0 -1 324 1.4071422629058361e-02</internalNodes>
          <leafValues>
            -1.8940739333629608e-01 7.4531674385070801e-02</leafValues></_>
        <_>
          <internalNodes>
            0 -1 345 2.7303136885166168e-02</internalNodes>
          <leafValues>
            -7.3424339294433594e-02 1.9670665264129639e-01</leafValues></_>
        <_>
          <internalNodes>
            0 -1 590 4.7903649508953094e-02</internalNodes>
          <leafValues>
            2.9448542743921280e-02 -4.9410066008567810e-01</leafValues></_>
        <_>
          <internalNodes>
            0 -1 96 1.0241661220788956e-03</internalNodes>
          <leafValues>
            5.3364229202270508e-01 -2.8272151947021484e-02</leafValues></_>
        <_>
          <internalNodes>
            0 -1 90 2.6626382023096085e-02</internalNodes>
          <leafValues>
            8.2725897431373596e-02 -1.6274161636829376e-01</leafValues></_>
        <_>
          <internalNodes>
            0 -1 243 1.9043367356061935e-02</internalNodes>
          <leafValues>
            -1.0466830432415009e-01 1.3758113980293274e-01</leafValues></_>
        <_>
          <internalNodes>
            0 -1 473 7.9384259879589081e-04</internalNodes>
          <leafValues>
            -7.5707679986953735e-01 1.9559796899557114e-02</leafValues></_>
        <_>
          <internalNodes>
            0 -1 200 1.1718161404132843e-02</internalNodes>
          <leafValues>
            1.5625241398811340e-01 -9.4975121319293976e-02</leafValues></_>
        <_>
          <internalNodes>
            0 -1 219 4.0936417877674103e-02</internalNodes>
          <leafValues>
            4.9220260232686996e-02 -2.7092939615249634e-01</leafValues></_>
        <_>
          <internalNodes>
            0 -1 118 8.3399033173918724e-03</internalNodes>
          <leafValues>
            1.7321975529193878e-01 -7.5468651950359344e-02</leafValues></_>
        <_>
          <internalNodes>
            0 -1 406 3.2026972621679306e-03</internalNodes>
          <leafValues>
            6.0527080297470093e-01 -2.2699005901813507e-02</leafValues></_>
        <_>
          <internalNodes>
            0 -1 313 7.7725872397422791e-02</internalNodes>
          <leafValues>
            3.2215025275945663e-02 -4.5067784190177917e-01</leafValues></_>
        <_>
          <internalNodes>
            0 -1 379 6.5794631838798523e-02</internalNodes>
          <leafValues>
            2.7651550248265266e-02 -5.0947397947311401e-01</leafValues></_>
        <_>
          <internalNodes>
            0 -1 408 1.6633525490760803e-02</internalNodes>
          <leafValues>
            1.2818333506584167e-01 -1.1084877699613571e-01</leafValues></_>
        <_>
          <internalNodes>
            0 -1 378 2.0273661240935326e-02</internalNodes>
          <leafValues>
            -1.0861573368310928e-01 1.1451135575771332e-01</leafValues></_>
        <_>
          <internalNodes>
            0 -1 332 1.5270408242940903e-02</internalNodes>
          <leafValues>
            -4.6801340579986572e-01 2.4854093790054321e-02</leafValues></_>
        <_>
          <internalNodes>
            0 -1 239 5.0107508897781372e-02</internalNodes>
          <leafValues>
            -3.7992086261510849e-02 3.8194218277931213e-01</leafValues></_>
        <_>
          <internalNodes>
            0 -1 486 2.0638652145862579e-02</internalNodes>
          <leafValues>
            1.2792019546031952e-01 -1.1482302099466324e-01</leafValues></_>
        <_>
          <internalNodes>
            0 -1 183 4.2453326284885406e-02</internalNodes>
          <leafValues>
            9.3903146684169769e-02 -1.7265094816684723e-01</leafValues></_>
        <_>
          <internalNodes>
            0 -1 479 4.3076835572719574e-02</internalNodes>
          <leafValues>
            3.5995747894048691e-02 -3.7433210015296936e-01</leafValues></_>
        <_>
          <internalNodes>
            0 -1 148 5.7556912302970886e-02</internalNodes>
          <leafValues>
            -4.1297197341918945e-02 3.1096947193145752e-01</leafValues></_>
        <_>
          <internalNodes>
            0 -1 118 5.0552785396575928e-02</internalNodes>
          <leafValues>
            3.4294296056032181e-02 -3.7421628832817078e-01</leafValues></_>
        <_>
          <internalNodes>
            0 -1 302 2.2115003317594528e-02</internalNodes>
          <leafValues>
            9.2301733791828156e-02 -1.3263745605945587e-01</leafValues></_>
        <_>
          <internalNodes>
            0 -1 628 2.5692436844110489e-02</internalNodes>
          <leafValues>
            -9.9620871245861053e-02 1.2967276573181152e-01</leafValues></_>
        <_>
          <internalNodes>
            0 -1 231 5.7872809469699860e-02</internalNodes>
          <leafValues>
            4.0158730000257492e-02 -3.3002799749374390e-01</leafValues></_>
        <_>
          <internalNodes>
            0 -1 633 1.1145758628845215e-01</internalNodes>
          <leafValues>
            -1.7054267227649689e-02 7.6275259256362915e-01</leafValues></_>
        <_>
          <internalNodes>
            0 -1 251 3.5084590315818787e-02</internalNodes>
          <leafValues>
            4.2560294270515442e-02 -2.9666909575462341e-01</leafValues></_>
        <_>
          <internalNodes>
            0 -1 145 1.3299009297043085e-03</internalNodes>
          <leafValues>
            -4.4475278258323669e-01 2.3758532479405403e-02</leafValues></_>
        <_>
          <internalNodes>
            0 -1 186 8.4609994664788246e-03</internalNodes>
          <leafValues>
            2.3597741127014160e-01 -5.7451590895652771e-02</leafValues></_>
        <_>
          <internalNodes>
            0 -1 537 6.3974810764193535e-03</internalNodes>
          <leafValues>
            -4.1507801413536072e-01 3.2857052981853485e-02</leafValues></_>
        <_>
          <internalNodes>
            0 -1 342 3.0221443623304367e-02</internalNodes>
          <leafValues>
            7.5072139501571655e-02 -1.9627408683300018e-01</leafValues></_></weakClassifiers></_>
    <!-- stage 8 -->
    <_>
      <maxWeakCount>100</maxWeakCount>
      <stageThreshold>-6.1486631631851196e-01</stageThreshold>
      <weakClassifiers>
        <_>
          <internalNodes>
            0 -1 24 3.4581013023853302e-02</internalNodes>
          <leafValues>
            5.3545814752578735e-01 8.0574911832809448e-01</leafValues></_>
        <_>
          <internalNodes>
            0 -1 330 4.4151037000119686e-03</internalNodes>
          <leafValues>
            7.1459007263183594e-01 5.3331375122070312e-02</leafValues></_>
        <_>
          <internalNodes>
            0 -1 635 2.2835686802864075e-02</internalNodes>
          <leafValues>
            -2.3632097244262695e-01 1.7276012897491455e-01</leafValues></_>
        <_>
          <internalNodes>
            0 -1 358 3.2581523060798645e-02</internalNodes>
          <leafValues>
            -2.8385031223297119e-01 1.7898885905742645e-01</leafValues></_>
        <_>
          <internalNodes>
            0 -1 116 5.4796165786683559e-03</internalNodes>
          <leafValues>
            3.6228972673416138e-01 -8.6406402289867401e-02</leafValues></_>
        <_>
          <internalNodes>
            0 -1 440 3.3901046961545944e-02</internalNodes>
          <leafValues>
            -1.3836100697517395e-01 2.7845108509063721e-01</leafValues></_>
        <_>
          <internalNodes>
            0 -1 619 3.8075707852840424e-02</internalNodes>
          <leafValues>
            -1.3677372038364410e-01 2.0743800699710846e-01</leafValues></_>
        <_>
          <internalNodes>
            0 -1 136 1.7105102539062500e-02</internalNodes>
          <leafValues>
            -2.1558022499084473e-01 1.4801226556301117e-01</leafValues></_>
        <_>
          <internalNodes>
            0 -1 385 5.4118476808071136e-02</internalNodes>
          <leafValues>
            -7.3429979383945465e-02 4.8523977398872375e-01</leafValues></_>
        <_>
          <internalNodes>
            0 -1 384 4.4951535761356354e-02</internalNodes>
          <leafValues>
            -7.0269502699375153e-02 3.7763980031013489e-01</leafValues></_>
        <_>
          <internalNodes>
            0 -1 501 1.7452083528041840e-02</internalNodes>
          <leafValues>
            1.5393948554992676e-01 -1.9566360116004944e-01</leafValues></_>
        <_>
          <internalNodes>
            0 -1 375 6.0584798455238342e-02</internalNodes>
          <leafValues>
            -7.3121055960655212e-02 3.9437928795814514e-01</leafValues></_>
        <_>
          <internalNodes>
            0 -1 518 1.3553232885897160e-02</internalNodes>
          <leafValues>
            -4.1196793317794800e-01 7.5346633791923523e-02</leafValues></_>
        <_>
          <internalNodes>
            0 -1 233 9.1163814067840576e-03</internalNodes>
          <leafValues>
            -2.9375943541526794e-01 9.9517151713371277e-02</leafValues></_>
        <_>
          <internalNodes>
            0 -1 252 2.6816781610250473e-02</internalNodes>
          <leafValues>
            -2.3471215367317200e-01 1.0889790952205658e-01</leafValues></_>
        <_>
          <internalNodes>
            0 -1 365 5.9643059968948364e-02</internalNodes>
          <leafValues>
            4.2484939098358154e-02 -5.6794685125350952e-01</leafValues></_>
        <_>
          <internalNodes>
            0 -1 71 5.6466944515705109e-02</internalNodes>
          <leafValues>
            -4.8986405134201050e-02 5.0330048799514771e-01</leafValues></_>
        <_>
          <internalNodes>
            0 -1 639 6.0161855071783066e-02</internalNodes>
          <leafValues>
            -6.2305986881256104e-02 3.0846664309501648e-01</leafValues></_>
        <_>
          <internalNodes>
            0 -1 406 5.0042182207107544e-02</internalNodes>
          <leafValues>
            9.2493541538715363e-02 -2.5888544321060181e-01</leafValues></_>
        <_>
          <internalNodes>
            0 -1 382 3.8769822567701340e-02</internalNodes>
          <leafValues>
            -8.5418120026588440e-02 2.4788388609886169e-01</leafValues></_>
        <_>
          <internalNodes>
            0 -1 339 2.5722622871398926e-02</internalNodes>
          <leafValues>
            -2.6553833484649658e-01 7.5865648686885834e-02</leafValues></_>
        <_>
          <internalNodes>
            0 -1 3 3.4454803913831711e-02</internalNodes>
          <leafValues>
            1.1905322223901749e-01 -1.6488033533096313e-01</leafValues></_>
        <_>
          <internalNodes>
            0 -1 265 8.3644473925232887e-03</internalNodes>
          <leafValues>
            -4.6867170929908752e-01 4.3201901018619537e-02</leafValues></_>
        <_>
          <internalNodes>
            0 -1 446 1.4283454045653343e-02</internalNodes>
          <leafValues>
            1.6176322102546692e-01 -1.2482909113168716e-01</leafValues></_>
        <_>
          <internalNodes>
            0 -1 23 4.7505642287433147e-03</internalNodes>
          <leafValues>
            -3.1245854496955872e-01 5.7870730757713318e-02</leafValues></_>
        <_>
          <internalNodes>
            0 -1 529 6.4223453402519226e-02</internalNodes>
          <leafValues>
            -4.1828878223896027e-02 4.2961904406547546e-01</leafValues></_>
        <_>
          <internalNodes>
            0 -1 502 2.2915761917829514e-02</internalNodes>
          <leafValues>
            1.5455068647861481e-01 -1.5073117613792419e-01</leafValues></_>
        <_>
          <internalNodes>
            0 -1 549 2.5686021894216537e-02</internalNodes>
          <leafValues>
            -2.1116942167282104e-01 9.2008851468563080e-02</leafValues></_>
        <_>
          <internalNodes>
            0 -1 367 8.2032337784767151e-02</internalNodes>
          <leafValues>
            4.0294047445058823e-02 -4.6006113290786743e-01</leafValues></_>
        <_>
          <internalNodes>
            0 -1 356 3.7034936249256134e-03</internalNodes>
          <leafValues>
            3.0553472042083740e-01 -6.0633938759565353e-02</leafValues></_>
        <_>
          <internalNodes>
            0 -1 306 1.0919418185949326e-02</internalNodes>
          <leafValues>
            -2.2217133641242981e-01 1.0562860220670700e-01</leafValues></_>
        <_>
          <internalNodes>
            0 -1 357 6.3012712635099888e-03</internalNodes>
          <leafValues>
            2.8456875681877136e-01 -5.9600543230772018e-02</leafValues></_>
        <_>
          <internalNodes>
            0 -1 635 6.1078127473592758e-03</internalNodes>
          <leafValues>
            -5.4936343431472778e-01 3.3317431807518005e-02</leafValues></_>
        <_>
          <internalNodes>
            0 -1 634 8.5980191826820374e-02</internalNodes>
          <leafValues>
            1.5425775200128555e-02 -8.9534074068069458e-01</leafValues></_>
        <_>
          <internalNodes>
            0 -1 98 9.1871254146099091e-02</internalNodes>
          <leafValues>
            1.4107689261436462e-02 -8.4421294927597046e-01</leafValues></_>
        <_>
          <internalNodes>
            0 -1 303 2.1261086221784353e-03</internalNodes>
          <leafValues>
            3.0974385142326355e-01 -5.4520361125469208e-02</leafValues></_>
        <_>
          <internalNodes>
            0 -1 35 5.9849359095096588e-03</internalNodes>
          <leafValues>
            -3.2039147615432739e-01 4.6880401670932770e-02</leafValues></_>
        <_>
          <internalNodes>
            0 -1 530 4.9013890326023102e-02</internalNodes>
          <leafValues>
            -6.0732606798410416e-02 2.9126271605491638e-01</leafValues></_>
        <_>
          <internalNodes>
            0 -1 12 3.3747265115380287e-03</internalNodes>
          <leafValues>
            -3.4283551573753357e-01 4.7775827348232269e-02</leafValues></_>
        <_>
          <internalNodes>
            0 -1 295 2.7217552065849304e-02</internalNodes>
          <leafValues>
            -9.6910640597343445e-02 1.9120474159717560e-01</leafValues></_>
        <_>
          <internalNodes>
            0 -1 586 9.0032452717423439e-03</internalNodes>
          <leafValues>
            2.0750361680984497e-01 -8.4060110151767731e-02</leafValues></_>
        <_>
          <internalNodes>
            0 -1 502 4.8302635550498962e-02</internalNodes>
          <leafValues>
            3.9800059050321579e-02 -3.8559338450431824e-01</leafValues></_>
        <_>
          <internalNodes>
            0 -1 40 4.1885685175657272e-02</internalNodes>
          <leafValues>
            8.1342831254005432e-02 -1.8355414271354675e-01</leafValues></_>
        <_>
          <internalNodes>
            0 -1 15 9.9068749696016312e-03</internalNodes>
          <leafValues>
            -1.7565831542015076e-01 8.7030790746212006e-02</leafValues></_>
        <_>
          <internalNodes>
            0 -1 347 7.5047751888632774e-03</internalNodes>
          <leafValues>
            2.3144067823886871e-01 -6.8489432334899902e-02</leafValues></_>
        <_>
          <internalNodes>
            0 -1 499 6.8890172988176346e-03</internalNodes>
          <leafValues>
            -4.2812684178352356e-01 3.9180487394332886e-02</leafValues></_>
        <_>
          <internalNodes>
            0 -1 275 3.9931431412696838e-02</internalNodes>
          <leafValues>
            -8.3388432860374451e-02 2.1842251718044281e-01</leafValues></_>
        <_>
          <internalNodes>
            0 -1 306 4.2931128293275833e-02</internalNodes>
          <leafValues>
            -6.4812429249286652e-02 2.3206074535846710e-01</leafValues></_>
        <_>
          <internalNodes>
            0 -1 401 1.9685335457324982e-02</internalNodes>
          <leafValues>
            -1.9388766586780548e-01 7.6911307871341705e-02</leafValues></_>
        <_>
          <internalNodes>
            0 -1 418 4.5998100191354752e-02</internalNodes>
          <leafValues>
            -4.7801379114389420e-02 3.0170115828514099e-01</leafValues></_>
        <_>
          <internalNodes>
            0 -1 509 2.7754440903663635e-02</internalNodes>
          <leafValues>
            9.6343442797660828e-02 -1.6541311144828796e-01</leafValues></_>
        <_>
          <internalNodes>
            0 -1 308 2.2684171795845032e-02</internalNodes>
          <leafValues>
            -1.5914939343929291e-01 1.0390576720237732e-01</leafValues></_>
        <_>
          <internalNodes>
            0 -1 583 1.2481495738029480e-02</internalNodes>
          <leafValues>
            1.9185829162597656e-01 -7.3192559182643890e-02</leafValues></_>
        <_>
          <internalNodes>
            0 -1 634 3.1500314362347126e-03</internalNodes>
          <leafValues>
            -7.7663505077362061e-01 1.6426224261522293e-02</leafValues></_>
        <_>
          <internalNodes>
            0 -1 224 5.1106180995702744e-02</internalNodes>
          <leafValues>
            -4.8999864608049393e-02 3.2016879320144653e-01</leafValues></_>
        <_>
          <internalNodes>
            0 -1 332 1.1775761842727661e-02</internalNodes>
          <leafValues>
            -7.0405906438827515e-01 2.2041937336325645e-02</leafValues></_>
        <_>
          <internalNodes>
            0 -1 575 1.9029073882848024e-03</internalNodes>
          <leafValues>
            -6.5262299776077271e-01 1.4773069880902767e-02</leafValues></_>
        <_>
          <internalNodes>
            0 -1 142 9.3747414648532867e-02</internalNodes>
          <leafValues>
            -2.0890524610877037e-02 6.8349534273147583e-01</leafValues></_>
        <_>
          <internalNodes>
            0 -1 544 3.6615923047065735e-02</internalNodes>
          <leafValues>
            6.1595056205987930e-02 -2.5004532933235168e-01</leafValues></_>
        <_>
          <internalNodes>
            0 -1 557 2.9839290305972099e-02</internalNodes>
          <leafValues>
            6.4166814088821411e-02 -1.8493860960006714e-01</leafValues></_>
        <_>
          <internalNodes>
            0 -1 100 9.2921629548072815e-03</internalNodes>
          <leafValues>
            -4.1062298417091370e-01 3.1006418168544769e-02</leafValues></_>
        <_>
          <internalNodes>
            0 -1 20 9.0692173689603806e-03</internalNodes>
          <leafValues>
            -2.8400942683219910e-01 4.0470290929079056e-02</leafValues></_>
        <_>
          <internalNodes>
            0 -1 43 2.6023207232356071e-02</internalNodes>
          <leafValues>
            -8.9851990342140198e-02 1.5554888546466827e-01</leafValues></_>
        <_>
          <internalNodes>
            0 -1 486 1.0113285854458809e-02</internalNodes>
          <leafValues>
            2.4418102204799652e-01 -5.7156641036272049e-02</leafValues></_>
        <_>
          <internalNodes>
            0 -1 262 6.6059574484825134e-02</internalNodes>
          <leafValues>
            5.6513387709856033e-02 -2.3862344026565552e-01</leafValues></_>
        <_>
          <internalNodes>
            0 -1 188 2.0393241196870804e-02</internalNodes>
          <leafValues>
            9.0429209172725677e-02 -1.4742249250411987e-01</leafValues></_>
        <_>
          <internalNodes>
            0 -1 370 7.7378228306770325e-02</internalNodes>
          <leafValues>
            -2.8016043826937675e-02 4.9489879608154297e-01</leafValues></_>
        <_>
          <internalNodes>
            0 -1 490 6.3162990845739841e-03</internalNodes>
          <leafValues>
            -3.3882728219032288e-01 4.0485490113496780e-02</leafValues></_>
        <_>
          <internalNodes>
            0 -1 619 4.4727019965648651e-02</internalNodes>
          <leafValues>
            -7.5031034648418427e-02 1.7907780408859253e-01</leafValues></_>
        <_>
          <internalNodes>
            0 -1 3 7.7199019491672516e-02</internalNodes>
          <leafValues>
            3.7608835846185684e-02 -3.1347435712814331e-01</leafValues></_>
        <_>
          <internalNodes>
            0 -1 97 1.3995033223181963e-03</internalNodes>
          <leafValues>
            4.6443220973014832e-01 -2.8231706470251083e-02</leafValues></_>
        <_>
          <internalNodes>
            0 -1 77 1.8674816936254501e-02</internalNodes>
          <leafValues>
            -1.4020499587059021e-01 9.7609430551528931e-02</leafValues></_>
        <_>
          <internalNodes>
            0 -1 353 3.4119278192520142e-02</internalNodes>
          <leafValues>
            -6.6950306296348572e-02 2.0322862267494202e-01</leafValues></_>
        <_>
          <internalNodes>
            0 -1 22 2.1680148318409920e-02</internalNodes>
          <leafValues>
            -1.0955493897199631e-01 1.1583863198757172e-01</leafValues></_>
        <_>
          <internalNodes>
            0 -1 55 6.3559874892234802e-02</internalNodes>
          <leafValues>
            -5.3386289626359940e-02 2.6794686913490295e-01</leafValues></_>
        <_>
          <internalNodes>
            0 -1 407 2.6505379937589169e-03</internalNodes>
          <leafValues>
            3.7463381886482239e-01 -3.3473886549472809e-02</leafValues></_>
        <_>
          <internalNodes>
            0 -1 327 3.7855267524719238e-02</internalNodes>
          <leafValues>
            5.5974055081605911e-02 -2.2776010632514954e-01</leafValues></_>
        <_>
          <internalNodes>
            0 -1 392 5.4672375321388245e-02</internalNodes>
          <leafValues>
            -2.9831375926733017e-02 4.3634083867073059e-01</leafValues></_>
        <_>
          <internalNodes>
            0 -1 496 5.8077331632375717e-02</internalNodes>
          <leafValues>
            -2.9438903555274010e-02 3.7725254893302917e-01</leafValues></_>
        <_>
          <internalNodes>
            0 -1 67 1.7183307558298111e-02</internalNodes>
          <leafValues>
            -1.5823934972286224e-01 8.5272587835788727e-02</leafValues></_>
        <_>
          <internalNodes>
            0 -1 429 2.9207445681095123e-02</internalNodes>
          <leafValues>
            1.3630373775959015e-01 -9.8498106002807617e-02</leafValues></_>
        <_>
          <internalNodes>
            0 -1 139 3.8619283586740494e-02</internalNodes>
          <leafValues>
            -1.0678780823945999e-01 1.2957936525344849e-01</leafValues></_>
        <_>
          <internalNodes>
            0 -1 116 4.3731715530157089e-02</internalNodes>
          <leafValues>
            -4.5135088264942169e-02 2.6158815622329712e-01</leafValues></_>
        <_>
          <internalNodes>
            0 -1 549 9.0509299188852310e-03</internalNodes>
          <leafValues>
            -6.0657364130020142e-01 2.2566707804799080e-02</leafValues></_>
        <_>
          <internalNodes>
            0 -1 617 1.6018193215131760e-02</internalNodes>
          <leafValues>
            -1.6077744960784912e-01 7.4358820915222168e-02</leafValues></_>
        <_>
          <internalNodes>
            0 -1 30 8.3309024572372437e-02</internalNodes>
          <leafValues>
            -2.9967736452817917e-02 4.2591753602027893e-01</leafValues></_>
        <_>
          <internalNodes>
            0 -1 533 2.5735046714544296e-02</internalNodes>
          <leafValues>
            8.8418260216712952e-02 -1.3670305907726288e-01</leafValues></_>
        <_>
          <internalNodes>
            0 -1 369 8.1694293767213821e-03</internalNodes>
          <leafValues>
            -1.7118142545223236e-01 7.3349587619304657e-02</leafValues></_>
        <_>
          <internalNodes>
            0 -1 563 1.6705058515071869e-02</internalNodes>
          <leafValues>
            1.4745341241359711e-01 -8.2273676991462708e-02</leafValues></_>
        <_>
          <internalNodes>
            0 -1 21 2.0155172795057297e-02</internalNodes>
          <leafValues>
            -1.2867836654186249e-01 1.0412587225437164e-01</leafValues></_>
        <_>
          <internalNodes>
            0 -1 363 5.9201087802648544e-02</internalNodes>
          <leafValues>
            2.4553526192903519e-02 -4.8789164423942566e-01</leafValues></_>
        <_>
          <internalNodes>
            0 -1 40 1.7881937092170119e-03</internalNodes>
          <leafValues>
            5.6414687633514404e-01 -2.2117678076028824e-02</leafValues></_>
        <_>
          <internalNodes>
            0 -1 291 4.7580063343048096e-02</internalNodes>
          <leafValues>
            4.0394991636276245e-02 -3.0199834704399109e-01</leafValues></_>
        <_>
          <internalNodes>
            0 -1 300 2.6722066104412079e-02</internalNodes>
          <leafValues>
            -1.9995258748531342e-01 5.0950478762388229e-02</leafValues></_>
        <_>
          <internalNodes>
            0 -1 10 4.0611334145069122e-02</internalNodes>
          <leafValues>
            -6.7471802234649658e-02 1.7961250245571136e-01</leafValues></_>
        <_>
          <internalNodes>
            0 -1 619 9.0660937130451202e-03</internalNodes>
          <leafValues>
            -4.8711097240447998e-01 2.5615837424993515e-02</leafValues></_>
        <_>
          <internalNodes>
            0 -1 264 3.7477634847164154e-02</internalNodes>
          <leafValues>
            -5.4477035999298096e-02 2.1364688873291016e-01</leafValues></_>
        <_>
          <internalNodes>
            0 -1 179 9.2357508838176727e-03</internalNodes>
          <leafValues>
            -1.8028995394706726e-01 5.5270031094551086e-02</leafValues></_>
        <_>
          <internalNodes>
            0 -1 465 2.2206032648682594e-02</internalNodes>
          <leafValues>
            8.0450616776943207e-02 -1.6812340915203094e-01</leafValues></_>
        <_>
          <internalNodes>
            0 -1 137 1.3777330517768860e-02</internalNodes>
          <leafValues>
            -1.2584178149700165e-01 8.6133949458599091e-02</leafValues></_></weakClassifiers></_>
    <!-- stage 9 -->
    <_>
      <maxWeakCount>100</maxWeakCount>
      <stageThreshold>-6.1258178949356079e-01</stageThreshold>
      <weakClassifiers>
        <_>
          <internalNodes>
            0 -1 421 4.5648366212844849e-02</internalNodes>
          <leafValues>
            3.8961037993431091e-01 8.1426733732223511e-01</leafValues></_>
        <_>
          <internalNodes>
            0 -1 558 1.1395467445254326e-02</internalNodes>
          <leafValues>
            4.7845631837844849e-01 -5.4088264703750610e-02</leafValues></_>
        <_>
          <internalNodes>
            0 -1 504 1.1661617085337639e-02</internalNodes>
          <leafValues>
            3.9724680781364441e-01 -1.3379299640655518e-01</leafValues></_>
        <_>
          <internalNodes>
            0 -1 237 8.5998967289924622e-02</internalNodes>
          <leafValues>
            -1.1795029044151306e-01 6.8752485513687134e-01</leafValues></_>
        <_>
          <internalNodes>
            0 -1 89 5.2890550345182419e-02</internalNodes>
          <leafValues>
            -6.9706536829471588e-02 3.5984963178634644e-01</leafValues></_>
        <_>
          <internalNodes>
            0 -1 195 2.6157673448324203e-02</internalNodes>
          <leafValues>
            -1.7808897793292999e-01 2.0429570972919464e-01</leafValues></_>
        <_>
          <internalNodes>
